{"layers":[{"out_depth":63,"out_sx":1,"out_sy":1,"layer_type":"input"},{"out_depth":50,"out_sx":1,"out_sy":1,"layer_type":"fc","num_inputs":63,"l1_decay_mul":0,"l2_decay_mul":1,"filters":[{"sx":1,"sy":1,"depth":63,"w":{"0":-2274135.672105542,"1":-849182.9464495296,"2":-574959.6324056054,"3":-2278730.5908644,"4":-851808.2889864969,"5":-574898.7275677627,"6":-4588.49521991273,"7":-4605.708431624085,"8":-4568.935984430891,"9":-2283325.503476593,"10":-854433.4889685857,"11":-575118.7651393019,"12":-3794.9119139501736,"13":-4918.220349047605,"14":-5050.143992113162,"15":-2287920.524656344,"16":-857059.2398565426,"17":-578674.9294462232,"18":-4851.418505376426,"19":-3388.876746378154,"20":-5522.678581563859,"21":-2292515.4214505977,"22":-859684.4141608624,"23":-581250.7704005596,"24":-6466.849825795649,"25":-2875.4208748595966,"26":-4420.694320184546,"27":-2297110.1371746934,"28":-864040.7202725807,"29":-584140.6070294983,"30":-3978.5711304797155,"31":-4025.359503798251,"32":-5759.254883167749,"33":-2301704.974536423,"34":-868396.971244087,"35":-585246.1826446825,"36":-3231.7058134373906,"37":-4933.987326146266,"38":-5597.389432738037,"39":-2306299.7571413936,"40":-872274.94089505,"41":-587875.021872955,"42":-2934.919220542799,"43":-4625.45238126403,"44":-6202.344664336824,"45":-2310894.696617689,"46":-876152.9947871454,"47":-587729.7283718626,"48":-4464.948897205346,"49":-4692.929880313015,"50":-4605.505703903683,"51":-2304223.532317619,"52":-878422.1449062651,"53":-592321.0520334573,"54":-4636.168971426228,"55":-3186.086822582341,"56":-5940.825776103798,"57":-2296568.7792679,"58":-885841.5550241171,"59":-592410.4695374356,"60":-5195.068252905841,"61":-4257.306999208458,"62":-4310.80170247743}},{"sx":1,"sy":1,"depth":63,"w":{"0":-1424927.705448753,"1":-531520.2091341092,"2":-360062.8799955125,"3":-1427784.5189275937,"4":-533149.5361654286,"5":-360067.12408794946,"6":-2867.560588299024,"7":-2875.051804330043,"8":-2877.864193468509,"9":-1430641.3406797983,"10":-534779.287516118,"11":-360202.7657472363,"12":-2374.7837256959024,"13":-3082.132366152267,"14":-3163.4910657820215,"15":-1433497.8524738366,"16":-536409.2382424965,"17":-362418.6666377394,"18":-3043.1731833201534,"19":-2124.0073878796024,"20":-3453.481520286694,"21":-1436354.6083740916,"22":-538038.6805814,"23":-364031.1727445157,"24":-4042.2302532071467,"25":-1805.3675339611898,"26":-2772.8564873199107,"27":-1439211.2734843257,"28":-540750.0258219022,"29":-365813.05416301044,"30":-2490.794242045415,"31":-2530.373164531349,"32":-3599.7204372842643,"33":-1442067.797407101,"34":-543461.4508020058,"35":-366528.36172569345,"36":-2028.5981908140272,"37":-3081.493717715141,"38":-3510.4332700444565,"39":-1444924.6997623814,"40":-545867.1182276756,"41":-368186.43900130875,"42":-1845.6601714623905,"43":-2890.006902858124,"44":-3884.870660768636,"45":-1447781.4545149559,"46":-548272.8228832001,"47":-368113.7174150409,"48":-2803.4809069117446,"49":-2930.157030705383,"50":-2886.568591284584,"51":-1443333.9978778309,"52":-549616.2837274596,"53":-370964.67878529726,"54":-2905.861314614426,"55":-2001.9151105686842,"56":-3712.4757641142005,"57":-1438694.035171519,"58":-554202.7856193035,"59":-371015.02256849094,"60":-3249.166886966412,"61":-2670.7312139232886,"62":-2700.7904978118727}},{"sx":1,"sy":1,"depth":63,"w":{"0":-1.2881474598403549e+28,"1":-4.778830624262129e+27,"2":-3.0640418416646124e+27,"3":-1.2871821884066915e+28,"4":-4.756178363156359e+27,"5":-3.036191716650643e+27,"6":-1.6976594282070943e+25,"7":-3.5577659484573197e+25,"8":-1.8867584476233208e+25,"9":-1.2899065874755628e+28,"10":-4.7385434856016654e+27,"11":-3.0177265048886095e+27,"12":-2.6663422583294364e+25,"13":-2.7918771358407138e+25,"14":-1.6839644301175475e+25,"15":-1.2919270103409332e+28,"16":-4.7111151533528155e+27,"17":-3.0119690521006604e+27,"18":-2.5568124571211303e+25,"19":-2.4654092672255445e+25,"20":-2.1199620999410733e+25,"21":-1.2944378452279656e+28,"22":-4.677017794568408e+27,"23":-3.0092981271651235e+27,"24":-2.3723598757470645e+25,"25":-2.465039722331503e+25,"26":-2.3047842262090716e+25,"27":-1.2955437602546663e+28,"28":-4.6424586753910115e+27,"29":-3.0314281776827e+27,"30":-3.196321379180813e+25,"31":-1.3090297070307742e+25,"32":-2.636832738076171e+25,"33":-1.297353651484909e+28,"34":-4.606527299878251e+27,"35":-3.0543192664818103e+27,"36":-1.7552419042744824e+25,"37":-2.006738296027108e+25,"38":-3.3802036239861117e+25,"39":-1.2982979609540296e+28,"40":-4.5770948597662914e+27,"41":-3.04771731323713e+27,"42":-2.307194229985616e+25,"43":-2.615553394496427e+25,"44":-2.219436199805796e+25,"45":-1.2999462466266983e+28,"46":-4.5476624196542815e+27,"47":-3.060294147494323e+27,"48":-2.2684015717790433e+25,"49":-2.0595860985404138e+25,"50":-2.814196153968429e+25,"51":-1.3008905560957888e+28,"52":-4.516664675620977e+27,"53":-3.064927587669426e+27,"54":-1.4529056648811826e+25,"55":-2.7056358744487274e+25,"56":-2.983642284957884e+25,"57":-1.3025388417684335e+28,"58":-4.4843131895040296e+27,"59":-3.0652812925557986e+27,"60":-1.5098478906288083e+25,"61":-2.8055568202389107e+25,"62":-2.826779113420031e+25}},{"sx":1,"sy":1,"depth":63,"w":{"0":-0.07407634575815383,"1":-0.03772040881458562,"2":0.0144903392273107,"3":-0.23827270698309955,"4":-0.13754964988020907,"5":-0.04759319041633435,"6":-0.0729781316638655,"7":0.1274466741261479,"8":0.11655667097162514,"9":-0.11103008618685432,"10":0.03601340811300567,"11":-0.09905302092939641,"12":0.0520189310639685,"13":0.01137406630019718,"14":0.06781802907575592,"15":0.05270866300875967,"16":0.22780486490418403,"17":0.04300157375108127,"18":-0.005036119997680917,"19":0.04535666116750283,"20":-0.037982454091854925,"21":0.16702019237939048,"22":-0.09786866546179124,"23":-0.1256886648869294,"24":0.02799020025227137,"25":-0.18338626298670963,"26":-0.18486472070711105,"27":-0.07258655985174238,"28":-0.04185273101845446,"29":0.015668871575371775,"30":0.04566544269126875,"31":-0.07780908715262133,"32":0.025748003599347542,"33":0.02144851681509245,"34":0.0334335771251958,"35":-0.11964414745135693,"36":0.06513959550983327,"37":-0.015705773155537187,"38":-0.009811349811760286,"39":0.20402651565175162,"40":-0.045621393750193126,"41":-0.09675597105583537,"42":-0.06576782528950975,"43":0.06758572374236592,"44":0.01265354209832472,"45":-0.2909366869421573,"46":-0.15373400547474814,"47":0.2714459698897275,"48":-0.1451430757933272,"49":0.0739184097731327,"50":-0.1074246839217166,"51":0.000575318527854215,"52":0.10046327998497757,"53":-0.1718035667629519,"54":0.06247908331981593,"55":0.14067404736721406,"56":0.08145815354529831,"57":-0.015616140866256392,"58":-0.039049093519969644,"59":0.05857659001014853,"60":0.043202946200470806,"61":-0.17270713323250375,"62":0.2571645261122092}},{"sx":1,"sy":1,"depth":63,"w":{"0":-1.2016197810026027e+21,"1":-701979610468427500000,"2":-618637769417117800000,"3":-156040903548781330000,"4":-498145527418945300000,"5":-603578744621500300000,"6":-4579236264318502400,"7":-9035414877378212000,"8":0.17679864783381288,"9":-176672099007156600000,"10":-518776722877338000000,"11":-609975764087712300000,"12":-617966933334948900,"13":-4579236264318502400,"14":-8417447944043260000,"15":-197303294465536820000,"16":-539407918335720800000,"17":-618637769417117800000,"18":-8417447944043260000,"19":-0.01692982830752012,"20":-5197203197653407000,"21":-141718568145938860000,"22":-576518232016359300000,"23":-640298909764390000000,"24":-617966933334948900,"25":0.05680075952841597,"26":-12996684208362074000,"27":-164409653382093930000,"28":-597149427474746200000,"29":-647930970204910400000,"30":-9035414877378212000,"31":-0.0057971641131728075,"32":-4579236264318502400,"33":-187100738618261240000,"34":-617780622933118000000,"35":-662989995000543000000,"36":-4579236264318502400,"37":0.0812480669537886,"38":-9035414877378212000,"39":-209791823854422130000,"40":-638411818391521600000,"41":-664019939889486000000,"42":-12996684208362074000,"43":-0.02377727229734621,"44":-617966933334948900,"45":-232482909090590900000,"46":-659043013849867100000,"47":-656387879448882800000,"48":-9035414877378212000,"49":-4579236264318502400,"50":-0.03838550556519362,"51":-255173994326734570000,"52":-679674209308246300000,"53":-656387879448882800000,"54":-13614651141696571000,"55":-0.012609148713081657,"56":0.002387791472528685,"57":-277865079562910170000,"58":-700305404766639900000,"59":-648755819008391900000,"60":-9035414877378212000,"61":-4579236264318502400,"62":-0.03594356541755213}},{"sx":1,"sy":1,"depth":63,"w":{"0":-2.721648566564815,"1":-0.7621572633195484,"2":-0.3448018269567646,"3":-2.927685926403009,"4":-0.9638702768687739,"5":-0.6503936814374337,"6":-0.0243694047046307,"7":0.009674885077302657,"8":-0.14893083428924828,"9":-2.51031185809082,"10":-0.6526346620495359,"11":-0.6960066640797609,"12":0.0032775963992013007,"13":-0.1001793118312991,"14":-0.13155400544073254,"15":-2.684774900423691,"16":-0.640125389235652,"17":-0.6388983205829187,"18":-0.0758787896967651,"19":-0.031407410995789406,"20":-0.12774430485712587,"21":-2.6624467388816204,"22":-0.9839988988880233,"23":-0.5708248212038681,"24":-0.02668974200071943,"25":0.03002356142707451,"26":-0.013883431833823241,"27":-2.7440527342671697,"28":-0.6692237483162702,"29":-0.7034460728245452,"30":-0.007298674263084163,"31":0.054826702901407134,"32":0.039576619635350696,"33":-2.518516580091017,"34":-0.8259894378344086,"35":-0.6600936065542143,"36":0.12022188169990712,"37":0.15232016587782335,"38":0.03298578408937322,"39":-2.66654832357695,"40":-0.7498820509486491,"41":-0.5346105429711844,"42":0.16189347523364558,"43":-0.07118152501287327,"44":0.06353112981201944,"45":-2.5382585784429534,"46":-0.7961389141251259,"47":-0.40345537318352853,"48":-0.02137272897935391,"49":0.08859072702509141,"50":-0.14611245768512465,"51":-2.5730771920306714,"52":-0.926741734833174,"53":-0.5197108517576002,"54":0.021244634111912318,"55":0.1242316306309002,"56":-0.20045213597360423,"57":-2.3221090244552127,"58":-0.8516310255904733,"59":-0.6575236670701408,"60":-0.10222449825404781,"61":-0.06384268663477385,"62":-0.20841788615759207}},{"sx":1,"sy":1,"depth":63,"w":{"0":-1.092573881640956,"1":-0.36845973810677934,"2":-0.10469371453492514,"3":-1.3464320637467395,"4":-0.48104227530327803,"5":-0.28323836184849716,"6":0.10939777290850018,"7":0.04143759842383186,"8":0.1646508740904839,"9":-1.030220268137055,"10":-0.46720231749746505,"11":-0.11977025115315633,"12":0.1005508738497403,"13":0.22076833658854045,"14":-0.030241151175435056,"15":-1.0433138486092186,"16":-0.42831807988843784,"17":-0.38838619264891633,"18":-0.014997304533399501,"19":-0.0309853440173959,"20":-0.09199276509745176,"21":-1.0386075625821523,"22":-0.2977057508472867,"23":-0.2029552073020255,"24":-0.016509864552871602,"25":0.022110787129354253,"26":0.11157391947915248,"27":-1.049627477413905,"28":-0.26340385105391506,"29":-0.20786144283743724,"30":-0.12911096952888784,"31":0.009053427859950744,"32":-0.23116286183219714,"33":-1.016340523983554,"34":-0.5970612986066713,"35":-0.0964059361376488,"36":-0.11120144773525782,"37":-0.11519806652914305,"38":0.19089155056270393,"39":-1.0223376198081249,"40":-0.23372894504827305,"41":-0.4502647926354333,"42":-0.07912636426798145,"43":-0.018706063483923206,"44":-0.019687902953697742,"45":-0.840398839909935,"46":-0.4555163755894072,"47":-0.3174634015560969,"48":-0.04225466171348881,"49":0.10910139209062916,"50":0.00820190626545866,"51":-0.9727102388315194,"52":-0.35920530015527996,"53":-0.13473582372883466,"54":0.18423806483279784,"55":-0.125839755168072,"56":0.05097248542354646,"57":-0.9855570667280996,"58":-0.3611662757281075,"59":-0.00023965386967490757,"60":0.1163353502059622,"61":-0.03465131313502613,"62":-0.0461715298262333}},{"sx":1,"sy":1,"depth":63,"w":{"0":-0.1420884014778598,"1":-0.16307622913783634,"2":-0.11549494481883679,"3":-0.07587156782149418,"4":-0.26751704665324444,"5":-0.010786997059816433,"6":-0.2571331720809144,"7":-0.1074857142546878,"8":-0.027474708593749446,"9":0.02994098230308769,"10":-0.07166645783397607,"11":-0.013574391933606277,"12":0.09557773569716624,"13":0.019591175186657313,"14":-0.062461988176708644,"15":-0.16325520640997954,"16":0.014572231679330245,"17":-0.06092947014089116,"18":0.0753812425211922,"19":-0.1412677148186482,"20":0.010558146859477114,"21":-0.003052162029203063,"22":-0.0786873085504831,"23":-0.17038063149878324,"24":0.0014844166223977925,"25":-0.20004596630541518,"26":-0.0035330014081987383,"27":0.12017757742695902,"28":0.14452201541984905,"29":-0.11532088110741208,"30":-0.08246624602419943,"31":-0.18216670499522625,"32":-0.15635274274634828,"33":-0.04607436251901727,"34":0.07084029212294753,"35":0.009592512860916856,"36":-0.06074262669789768,"37":-0.12280764901905523,"38":-0.08910109432326224,"39":-0.050494502023483066,"40":0.10181494945986422,"41":-0.05692292285424904,"42":-0.14565054630419413,"43":0.34844301588609494,"44":-0.1735888772910552,"45":0.030533857181564372,"46":0.10985725406509761,"47":-0.04151279368142214,"48":0.12052178058414352,"49":0.18488732494854504,"50":-0.08617574805885099,"51":-0.05029835312223313,"52":0.00033518798246289,"53":-0.03483079287963599,"54":-0.06549542388997734,"55":-0.04641390764436467,"56":0.08805803125887202,"57":-0.07334412345294723,"58":0.049997027461501115,"59":0.073770726998694,"60":0.09230659807969863,"61":-0.08890945435074889,"62":0.09225272108523358}},{"sx":1,"sy":1,"depth":63,"w":{"0":-2468950.139338656,"1":-920894.9430646887,"2":-624258.9818805133,"3":-2474040.3403250435,"4":-923751.9945263446,"5":-623946.0196322341,"6":-4975.772269360211,"7":-5073.4283890769775,"8":-4885.608552501713,"9":-2479130.1426905943,"10":-926608.9923660677,"11":-624168.760772086,"12":-4127.8861722920765,"13":-5336.830493205975,"14":-5470.253072344739,"15":-2484220.2482496654,"16":-929466.2463159644,"17":-628121.071725166,"18":-5242.889108998992,"19":-3660.434767036653,"20":-6031.864806813784,"21":-2489310.242721379,"22":-932323.3690672033,"23":-630915.0632495919,"24":-7077.377882008678,"25":-3090.8792877824253,"26":-4767.125043512382,"27":-2494400.359034633,"28":-937103.1715521689,"29":-634254.4973852696,"30":-4338.849730709067,"31":-4296.609040296956,"32":-6300.065729016585,"33":-2499490.2374355216,"34":-941883.0589660378,"35":-635363.0573535035,"36":-3505.401236835672,"37":-5382.227445339367,"38":-6047.635705430104,"39":-2504580.3339255773,"40":-946184.1319652048,"41":-638187.1938257033,"42":-3119.6153935573993,"43":-5060.592267519093,"44":-6755.162529022862,"45":-2509670.5362623674,"46":-950485.1844881574,"47":-637977.4856207118,"48":-4801.161389237243,"49":-5129.9514525774075,"50":-5004.030477954207,"51":-2503408.9165976425,"52":-953237.6032080039,"53":-643007.9673778401,"54":-5038.2361135446035,"55":-3439.403590307116,"56":-6457.268450348291,"57":-2495111.1877984894,"58":-961405.2793127096,"59":-643137.552335307,"60":-5687.166274930793,"61":-4584.854513993394,"62":-4662.958354516697}},{"sx":1,"sy":1,"depth":63,"w":{"0":-0.34617429153863477,"1":-0.07811972802560732,"2":0.08650365025513908,"3":-0.20813800645483263,"4":-0.15337559370694354,"5":-0.2816620927934947,"6":-0.05082862078364214,"7":0.04615249116129028,"8":-0.02270910024307877,"9":-0.4946298066036325,"10":-0.3232308907424425,"11":-0.2401906343306887,"12":0.1741274357876251,"13":-0.011219055101853963,"14":0.04557724866010074,"15":-0.356566065687254,"16":-0.2949003417205821,"17":-0.05883111280611136,"18":-0.10473462225680903,"19":-0.024709835119724438,"20":0.08366906817612131,"21":-0.24245361204975505,"22":-0.09848588320271368,"23":0.006228166507448659,"24":0.17586130964066027,"25":-0.10939439304318291,"26":0.024157546533547306,"27":-0.6998235918540784,"28":-0.32534290099458535,"29":0.04723195169289221,"30":0.14129178725537872,"31":-0.06836486727876312,"32":-0.07856148480199397,"33":-0.37071056753485976,"34":-0.24807396403308984,"35":-0.14933999310812648,"36":0.19144728212192028,"37":0.01375910668997544,"38":-0.2050996542420807,"39":-0.2798731795869873,"40":-0.04530250187043752,"41":-0.2867952409013207,"42":0.15397414605296986,"43":0.1900084434860986,"44":0.014474005501587915,"45":-0.3963981453070225,"46":-0.22059185874234125,"47":-0.19593883724317485,"48":-0.18249643583585015,"49":-0.19261744237046194,"50":-0.08550674339153852,"51":-0.5924255634501913,"52":-0.09730677310506332,"53":0.02022537905903872,"54":-0.1136234767083746,"55":0.15993675545707373,"56":0.2116407678092506,"57":-0.2409226709707002,"58":-0.2687278279843079,"59":-0.13655158385270835,"60":-0.04868979922345905,"61":-0.03188911488611191,"62":-0.2212871342310493}},{"sx":1,"sy":1,"depth":63,"w":{"0":-1.0493403473075539e+98,"1":-3.761567368975564e+97,"2":-2.771431410070729e+97,"3":-1.0318059746482804e+98,"4":-3.8204411546107904e+97,"5":-2.7683104209711965e+97,"6":-1.5764830380775348e+95,"7":-2.6200279300164514e+95,"8":-2.4327685840416432e+95,"9":-1.0137752788196885e+98,"10":-3.8724979878720544e+97,"11":-2.7724319795954495e+97,"12":-2.7277835088145303e+95,"13":-1.8271012629331297e+95,"14":-2.074394780387745e+95,"15":-1.0165143083926973e+98,"16":-3.8744899114791254e+97,"17":-2.778321281493545e+97,"18":-1.4065428510366898e+95,"19":-2.43468929360833e+95,"20":-2.788047407490574e+95,"21":-1.0180676558531731e+98,"22":-3.876481835085974e+97,"23":-2.7654173777248837e+97,"24":-2.2225985439644596e+95,"25":-2.590457617140705e+95,"26":-1.8162233910304843e+95,"27":-1.0206419974753675e+98,"28":-3.874860983098941e+97,"29":-2.784988584227659e+97,"30":-1.7834591994808156e+95,"31":-1.8357739812487663e+95,"32":-3.010046371405988e+95,"33":-1.0220306569850767e+98,"34":-3.874020436399425e+97,"35":-2.801550074198111e+97,"36":-1.49226741719783e+95,"37":-2.0716613683522364e+95,"38":-3.0653507665853586e+95,"39":-1.0194337420051278e+98,"40":-3.883733052921647e+97,"41":-2.8137836159477684e+97,"42":-1.770581692304268e+95,"43":-2.062342677427224e+95,"44":-2.796355182404012e+95,"45":-1.0207711065807761e+98,"46":-3.884930732768557e+97,"47":-2.822289207673838e+97,"48":-2.2612991434807814e+95,"49":-1.928822452544822e+95,"50":-2.4391579561098844e+95,"51":-1.0231869441309194e+98,"52":-3.886128412615502e+97,"53":-2.8036965242920227e+97,"54":-2.6712976388288103e+95,"55":-2.5367714581066797e+95,"56":-1.4212104552001708e+95,"57":-1.024205132920404e+98,"58":-3.8873260924624125e+97,"59":-2.7873807538216853e+97,"60":-1.9182539387491706e+95,"61":-2.8449859208054697e+95,"62":-1.8660396925809563e+95}},{"sx":1,"sy":1,"depth":63,"w":{"0":-2.1163369422999367,"1":-0.7168302239229839,"2":-0.5149057805036388,"3":-2.1934526440159936,"4":-0.5633099718773669,"5":-0.5821137086954494,"6":0.12957339973283763,"7":-0.28459249831115463,"8":0.106200422929167,"9":-2.0654376688280816,"10":-0.5766917690208758,"11":-0.2851675867919824,"12":-0.12471855254220349,"13":-0.02315398795441613,"14":-0.26216627708658125,"15":-2.1062900903110333,"16":-0.37750835083716705,"17":-0.10621777203676297,"18":-0.16891053958156418,"19":-0.268027720827549,"20":0.11024833359919259,"21":-2.187119633601783,"22":-0.5233991180525588,"23":-0.7037984764814638,"24":0.04255121234814605,"25":-0.17059292066791068,"26":0.05231779796803449,"27":-2.062479712421028,"28":-0.5513286296077501,"29":-0.41815328864892837,"30":-0.15832061283071072,"31":0.008935583178777086,"32":0.019338758795583253,"33":-1.9989092500222099,"34":-0.5530690313882854,"35":-0.6510807709481934,"36":0.0775574347370614,"37":0.0549671938508499,"38":0.022193651400499104,"39":-2.013752393883232,"40":-0.3242838415736845,"41":-0.40617650375974235,"42":0.021966766930307396,"43":-0.09831935268766027,"44":-0.0397245017133535,"45":-2.055430031857605,"46":-0.8056099494193925,"47":-0.5695956122994545,"48":-0.005676893092167108,"49":0.15220644747182027,"50":-0.0294151049592517,"51":-1.9774244291771788,"52":-0.5246560952086561,"53":-0.3670208879761984,"54":0.010303762746422905,"55":-0.18709116221656052,"56":0.1277113675050182,"57":-1.9825086803961312,"58":-0.5976200088436466,"59":-0.4700510295745711,"60":0.00386354933766959,"61":0.19164946330361338,"62":0.04407493803892106}},{"sx":1,"sy":1,"depth":63,"w":{"0":-0.2140028204613219,"1":-0.08380758132803527,"2":-0.1848461882957007,"3":-0.4043750646496833,"4":-0.3471137474765353,"5":0.01899509914775931,"6":0.07130265298483877,"7":0.0756400434817282,"8":-0.052489430707463924,"9":-0.24800237982780976,"10":-0.31876751304085993,"11":-0.18065084043921636,"12":-0.058157393146826435,"13":0.024258396697927898,"14":0.13213682825800468,"15":-0.14843512109994236,"16":-0.33704141072854676,"17":-0.01071041947692531,"18":-0.06844867035754948,"19":0.001674019970403616,"20":0.2764863416706864,"21":-0.19195447960745982,"22":-0.17971114541919084,"23":-0.06496364402085528,"24":-0.13933917578878546,"25":0.051310616786877185,"26":-0.21526069171210138,"27":-0.5904790359609291,"28":-0.18074462724122128,"29":-0.13607066387232783,"30":-0.131004722462184,"31":0.01115700206984393,"32":-0.04209716870333176,"33":-0.4280230709235578,"34":0.008456169542796094,"35":0.028749115830650294,"36":0.03637978668619096,"37":0.005222787085162799,"38":0.06674390844393949,"39":-0.4420440630641707,"40":-0.09859513688269045,"41":-0.25232975828832493,"42":0.00813985257637036,"43":0.12270607680349702,"44":0.04554226766298859,"45":-0.2893811494323079,"46":-0.25720631001126615,"47":-0.13216224572801516,"48":-0.0006447355134899475,"49":-0.03323189158261346,"50":0.12116481513305608,"51":-0.36607798806598496,"52":-0.378697676856607,"53":-0.2235991732508034,"54":-0.025752716905699805,"55":-0.27123221736026615,"56":0.010596860457406767,"57":-0.4277141162367716,"58":-0.33665457975621976,"59":-0.06065895743451974,"60":0.21350924339024802,"61":0.10078226852194867,"62":-0.0006318569462174747}},{"sx":1,"sy":1,"depth":63,"w":{"0":-0.1712679876809203,"1":-0.1662553302954749,"2":-0.06331762000856099,"3":-0.14003450179706978,"4":-0.271787242646073,"5":0.12513265023060427,"6":-0.2333450560803297,"7":-0.09965095085297675,"8":0.077533781575212,"9":-0.08157416095748664,"10":-0.03586158419755189,"11":-0.0839482238963804,"12":0.0716596417512676,"13":0.031379180394896726,"14":-0.05425931023069343,"15":-0.2085825928580212,"16":-0.0462910699063433,"17":0.0924298733419821,"18":0.02220497322724891,"19":0.1602827058081522,"20":-0.1457908430998966,"21":-0.004587598083219007,"22":0.030412008208412975,"23":0.0013735450792040744,"24":0.0019353118577326838,"25":0.08633482926559444,"26":0.012804927665024848,"27":0.00884611172905345,"28":0.036443975721253644,"29":-0.1564642672728905,"30":-0.03611330166874427,"31":-0.11946774633570433,"32":-0.32568049518963826,"33":-0.37025198394951536,"34":-0.11859860058490251,"35":-0.04377184473789483,"36":0.15482987242098917,"37":0.045841487699803035,"38":0.09212250852370311,"39":-0.11495408992586734,"40":-0.05903569871801649,"41":0.2901451158799628,"42":0.04842947668973819,"43":0.033840883430038396,"44":0.09127921657382325,"45":-0.1812365662048347,"46":-0.03856757243837337,"47":-0.0400474390699371,"48":0.331903022940573,"49":0.272862674562548,"50":-0.18454760736685416,"51":-0.10160266766320354,"52":-0.1117372735084966,"53":0.09404267053159521,"54":0.17310058939070896,"55":0.11917970804341455,"56":0.10350504454773586,"57":-0.023541763228496916,"58":0.06278235516717752,"59":0.10905466940055537,"60":-0.041775255968354276,"61":0.01788346033814864,"62":-0.16696319273376897}},{"sx":1,"sy":1,"depth":63,"w":{"0":null,"1":null,"2":null,"3":null,"4":null,"5":null,"6":null,"7":null,"8":null,"9":null,"10":null,"11":null,"12":null,"13":null,"14":null,"15":null,"16":null,"17":null,"18":null,"19":null,"20":null,"21":null,"22":null,"23":null,"24":null,"25":null,"26":null,"27":null,"28":null,"29":null,"30":null,"31":null,"32":null,"33":null,"34":null,"35":null,"36":null,"37":null,"38":null,"39":null,"40":null,"41":null,"42":null,"43":null,"44":null,"45":null,"46":null,"47":null,"48":null,"49":null,"50":null,"51":null,"52":null,"53":null,"54":null,"55":null,"56":null,"57":null,"58":null,"59":null,"60":null,"61":null,"62":null}},{"sx":1,"sy":1,"depth":63,"w":{"0":-6.6025400789844284e+28,"1":-2.449460274862248e+28,"2":-1.5705071756377965e+28,"3":-6.597592248134289e+28,"4":-2.4378500451272426e+28,"5":-1.5562323526331922e+28,"6":-8.701553911551729e+25,"7":-1.823571519993504e+26,"8":-9.670821397201416e+25,"9":-6.611557044032893e+28,"10":-2.4288116845851394e+28,"11":-1.5467672651317757e+28,"12":-1.3666688817306562e+26,"13":-1.4310227096121364e+26,"14":-8.63117459526072e+25,"15":-6.621913687148833e+28,"16":-2.4147529399703364e+28,"17":-1.5438159412015405e+28,"18":-1.3105453205875434e+26,"19":-1.2636715830480773e+26,"20":-1.0865921472331411e+26,"21":-6.634783752107525e+28,"22":-2.3972756991323026e+28,"23":-1.5424468011944541e+28,"24":-1.2159835199129573e+26,"25":-1.2634869656907827e+26,"26":-1.1813385652650148e+26,"27":-6.640453091931911e+28,"28":-2.37956175971249e+28,"29":-1.5537892280787776e+28,"30":-1.6383096980444407e+26,"31":-6.709768698823676e+25,"32":-1.3515224829420295e+26,"33":-6.649730584538971e+28,"34":-2.361144485366323e+28,"35":-1.5655228241444197e+28,"36":-8.996565114177388e+25,"37":-1.028568387754409e+26,"38":-1.732584151696643e+26,"39":-6.65457153356106e+28,"40":-2.34605816904537e+28,"41":-1.5621392674295074e+28,"42":-1.1825631883475445e+26,"43":-1.3406296327081471e+26,"44":-1.1376162298131468e+26,"45":-6.663020635365581e+28,"46":-2.330971852724508e+28,"47":-1.5685857561934193e+28,"48":-1.1626857192019013e+26,"49":-1.0556670029180924e+26,"50":-1.4424563287488059e+26,"51":-6.667861584387704e+28,"52":-2.315083160921666e+28,"53":-1.570960814384557e+28,"54":-7.446909472145883e+25,"55":-1.3868073060917657e+26,"56":-1.529310797562477e+26,"57":-6.676310686192074e+28,"58":-2.2985005403284513e+28,"59":-1.5711429743177759e+28,"60":-7.738832723395301e+25,"61":-1.437998091268541e+26,"62":-1.4489276872607011e+26}},{"sx":1,"sy":1,"depth":63,"w":{"0":null,"1":null,"2":null,"3":null,"4":null,"5":null,"6":null,"7":null,"8":null,"9":null,"10":null,"11":null,"12":null,"13":null,"14":null,"15":null,"16":null,"17":null,"18":null,"19":null,"20":null,"21":null,"22":null,"23":null,"24":null,"25":null,"26":null,"27":null,"28":null,"29":null,"30":null,"31":null,"32":null,"33":null,"34":null,"35":null,"36":null,"37":null,"38":null,"39":null,"40":null,"41":null,"42":null,"43":null,"44":null,"45":null,"46":null,"47":null,"48":null,"49":null,"50":null,"51":null,"52":null,"53":null,"54":null,"55":null,"56":null,"57":null,"58":null,"59":null,"60":null,"61":null,"62":null}},{"sx":1,"sy":1,"depth":63,"w":{"0":null,"1":null,"2":null,"3":null,"4":null,"5":null,"6":null,"7":null,"8":null,"9":null,"10":null,"11":null,"12":null,"13":null,"14":null,"15":null,"16":null,"17":null,"18":null,"19":null,"20":null,"21":null,"22":null,"23":null,"24":null,"25":null,"26":null,"27":null,"28":null,"29":null,"30":null,"31":null,"32":null,"33":null,"34":null,"35":null,"36":null,"37":null,"38":null,"39":null,"40":null,"41":null,"42":null,"43":null,"44":null,"45":null,"46":null,"47":null,"48":null,"49":null,"50":null,"51":null,"52":null,"53":null,"54":null,"55":null,"56":null,"57":null,"58":null,"59":null,"60":null,"61":null,"62":null}},{"sx":1,"sy":1,"depth":63,"w":{"0":null,"1":null,"2":null,"3":null,"4":null,"5":null,"6":null,"7":null,"8":null,"9":null,"10":null,"11":null,"12":null,"13":null,"14":null,"15":null,"16":null,"17":null,"18":null,"19":null,"20":null,"21":null,"22":null,"23":null,"24":null,"25":null,"26":null,"27":null,"28":null,"29":null,"30":null,"31":null,"32":null,"33":null,"34":null,"35":null,"36":null,"37":null,"38":null,"39":null,"40":null,"41":null,"42":null,"43":null,"44":null,"45":null,"46":null,"47":null,"48":null,"49":null,"50":null,"51":null,"52":null,"53":null,"54":null,"55":null,"56":null,"57":null,"58":null,"59":null,"60":null,"61":null,"62":null}},{"sx":1,"sy":1,"depth":63,"w":{"0":0.009188852686595302,"1":-0.13652867281930575,"2":0.11694939831690271,"3":-0.060556790621217924,"4":0.08280309204160206,"5":-0.020058584138821018,"6":-0.02213654961800911,"7":0.04022576706468033,"8":-0.014153197598952756,"9":-0.0623680422371646,"10":-0.08852416503864793,"11":0.06473316803133615,"12":0.01103056626945083,"13":0.21845298058112503,"14":0.08318154576619538,"15":-0.09075213882200778,"16":-0.11843723949509528,"17":-0.11623076966047803,"18":0.16451911794066665,"19":-0.06452983418992983,"20":-0.03881739626562032,"21":0.049421232914483394,"22":-0.12642232766920292,"23":0.08193137422288108,"24":0.029640405836243416,"25":0.09066264867525543,"26":0.047676878430285764,"27":0.1024002361721997,"28":-0.12337658898105282,"29":0.06117144387859137,"30":-0.11069360516039023,"31":-0.1180712763399276,"32":0.04614243216159546,"33":-0.23412120926467916,"34":-0.10799675543757516,"35":0.01921833507019959,"36":0.0210883729340852,"37":-0.17795689038472517,"38":0.15530129237714035,"39":-0.035857227184807966,"40":-0.1934012589815069,"41":0.004612924059449323,"42":-0.09230662409325434,"43":0.05163054003195894,"44":-0.1746180403830434,"45":-0.22927527848671786,"46":-0.0012950638703359601,"47":-0.14924251885165732,"48":-0.20615806326399178,"49":0.02662408617347751,"50":0.04856680357639387,"51":0.04288626952433253,"52":0.06378228358436146,"53":-0.06030382132798517,"54":0.084442161736788,"55":0.15780706601158714,"56":0.15350884974206344,"57":-0.2532690372083161,"58":-0.30792309694601316,"59":0.164149786729648,"60":-0.017213166872969112,"61":0.20471807817147214,"62":0.10824236096267138}},{"sx":1,"sy":1,"depth":63,"w":{"0":-9.004119223826004e+27,"1":-3.340396172450463e+27,"2":-2.141757579328786e+27,"3":-8.997371902717582e+27,"4":-3.324562412280862e+27,"5":-2.1222903927662956e+27,"6":-1.186658802237664e+25,"7":-2.4868716481802765e+25,"8":-1.3188404544329405e+25,"9":-9.016415611316547e+27,"10":-3.312235861734671e+27,"11":-2.1093830684434227e+27,"12":-1.863770719690234e+25,"13":-1.9515198222683067e+25,"14":-1.1770803628923728e+25,"15":-9.030538587667947e+27,"16":-3.29306349140007e+27,"17":-2.105358514338935e+27,"18":-1.7872138334031009e+25,"19":-1.7233151588594112e+25,"20":-1.4818419125883047e+25,"21":-9.048089476845217e+27,"22":-3.2692294024789263e+27,"23":-2.1034914436783003e+27,"24":-1.6582758195195542e+25,"25":-1.723059662481266e+25,"26":-1.6110354228500538e+25,"27":-9.055820105737205e+27,"28":-3.2450725417909046e+27,"29":-2.1189601310564553e+27,"30":-2.2342222349768442e+25,"31":-9.150137135943698e+24,"32":-1.843134956279672e+25,"33":-9.068471466876279e+27,"34":-3.219956485896195e+27,"35":-2.1349611308985966e+27,"36":-1.2269066446444387e+25,"37":-1.402702134840286e+25,"38":-2.3627621253662032e+25,"39":-9.075072468539003e+27,"40":-3.199383129149061e+27,"41":-2.130346461960903e+27,"42":-1.6127199298502657e+25,"43":-1.8282655556305425e+25,"44":-1.5513854193700502e+25,"45":-9.086594202449339e+27,"46":-3.1788097724024196e+27,"47":-2.1391376879897364e+27,"48":-1.5856037014024337e+25,"49":-1.439646820859828e+25,"50":-1.9671203825885303e+25,"51":-9.093195204111802e+27,"52":-3.157142263970374e+27,"53":-2.1423764891103444e+27,"54":-1.0155723245551744e+25,"55":-1.8912352565286868e+25,"56":-2.0855633237668874e+25,"57":-9.104716938022595e+27,"58":-3.1345284861516647e+27,"59":-2.1426240382353158e+27,"60":-1.0553777791438394e+25,"61":-1.9610700891020995e+25,"62":-1.975923036604943e+25}},{"sx":1,"sy":1,"depth":63,"w":{"0":-2.8811564831644877e+27,"1":-1.0688748205522014e+27,"2":-6.853235290813038e+26,"3":-2.87899740405046e+27,"4":-1.0638084978029387e+27,"5":-6.790944479427071e+26,"6":-3.79711920321287e+24,"7":-7.957517727992535e+24,"8":-4.220069044824284e+24,"9":-2.8850912330590253e+27,"10":-1.059864452913911e+27,"11":-6.749641424347661e+26,"12":-5.963730401520088e+24,"13":-6.244579439637255e+24,"14":-3.766396134872152e+24,"15":-2.889610581673671e+27,"16":-1.0537296369916023e+27,"17":-6.736762734400989e+26,"18":-5.71884412468304e+24,"19":-5.514291624068802e+24,"20":-4.7415702272777315e+24,"21":-2.8952266831796654e+27,"22":-1.046103092700309e+27,"23":-6.730788673022513e+26,"24":-5.306195591407768e+24,"25":-5.513477033660606e+24,"26":-5.155033350961516e+24,"27":-2.897700629132781e+27,"28":-1.038373255976107e+27,"29":-6.780283256670192e+26,"30":-7.149095677004113e+24,"31":-2.927967640070638e+24,"32":-5.897642658955025e+24,"33":-2.901749055479547e+27,"34":-1.0303365067903643e+27,"35":-6.831485361017227e+26,"36":-3.925827507107349e+24,"37":-4.488376104065358e+24,"38":-7.560502364857117e+24,"39":-2.9038615015840553e+27,"40":-1.0237532792318569e+27,"41":-6.816720958107676e+26,"42":-5.16034186324695e+24,"43":-5.85011414367177e+24,"44":-4.964249969111076e+24,"45":-2.9075484280821777e+27,"46":-1.0171700516733385e+27,"47":-6.844851438584596e+26,"48":-5.073625436457914e+24,"49":-4.606625855491139e+24,"50":-6.294454684080778e+24,"51":-2.9096608741865363e+27,"52":-1.0102366770412417e+27,"53":-6.855215630849888e+26,"54":-3.249621604903893e+24,"55":-6.051616417589271e+24,"56":-6.673467953536391e+24,"57":-2.913347800684813e+27,"58":-1.00300048017606e+27,"59":-6.856010672941382e+26,"60":-3.377001949418891e+24,"61":-6.27500075055874e+24,"62":-6.322703276052321e+24}},{"sx":1,"sy":1,"depth":63,"w":{"0":0.03704655956998922,"1":-0.039174311345291805,"2":0.04795557300333346,"3":-0.23689566256863667,"4":-0.20896017473313327,"5":-0.05086811153539489,"6":0.029704299594381093,"7":0.1251281109569256,"8":0.07491615245784597,"9":0.023111788651680395,"10":0.05665740178488672,"11":0.018689811475572082,"12":0.08269355477945387,"13":0.15873987405986392,"14":0.09638516990952073,"15":0.03172591411740904,"16":-0.1069281788629438,"17":0.1102132940983163,"18":0.18336769628291696,"19":-0.04194754846477159,"20":0.22014002332563312,"21":-0.074476337027961,"22":0.031444540729640105,"23":-0.05826962963295394,"24":0.015361974978698258,"25":0.2596192380826008,"26":0.22346070158480266,"27":-0.04366192577958148,"28":-0.0686083729133008,"29":-0.047561286298523936,"30":-0.006619163440497351,"31":0.0736984489975224,"32":0.01349911867413229,"33":-0.13378894739733707,"34":-0.027946537922849207,"35":-0.11888219503572454,"36":-0.14014944900351856,"37":-0.2246315088010518,"38":0.22369466115181508,"39":-0.14398168085754426,"40":0.14746931047292405,"41":-0.1808510648571351,"42":-0.14292895098942424,"43":0.09446327428683754,"44":0.14647057309405356,"45":-0.137029118441629,"46":-0.08863571726917235,"47":0.0982958840793539,"48":0.008198476701795503,"49":0.05257877761533781,"50":-0.024649393911536522,"51":0.00950480713026744,"52":-0.10343051763862968,"53":-0.15873183210953623,"54":0.03806759823551547,"55":-0.2669325525042242,"56":0.041373006495210904,"57":0.01782496818152116,"58":-0.05565733143305928,"59":-0.013984707652160068,"60":-0.10078727608273776,"61":0.04131017731193032,"62":0.006781903971343928}},{"sx":1,"sy":1,"depth":63,"w":{"0":null,"1":null,"2":null,"3":null,"4":null,"5":null,"6":null,"7":null,"8":null,"9":null,"10":null,"11":null,"12":null,"13":null,"14":null,"15":null,"16":null,"17":null,"18":null,"19":null,"20":null,"21":null,"22":null,"23":null,"24":null,"25":null,"26":null,"27":null,"28":null,"29":null,"30":null,"31":null,"32":null,"33":null,"34":null,"35":null,"36":null,"37":null,"38":null,"39":null,"40":null,"41":null,"42":null,"43":null,"44":null,"45":null,"46":null,"47":null,"48":null,"49":null,"50":null,"51":null,"52":null,"53":null,"54":null,"55":null,"56":null,"57":null,"58":null,"59":null,"60":null,"61":null,"62":null}},{"sx":1,"sy":1,"depth":63,"w":{"0":null,"1":null,"2":null,"3":null,"4":null,"5":null,"6":null,"7":null,"8":null,"9":null,"10":null,"11":null,"12":null,"13":null,"14":null,"15":null,"16":null,"17":null,"18":null,"19":null,"20":null,"21":null,"22":null,"23":null,"24":null,"25":null,"26":null,"27":null,"28":null,"29":null,"30":null,"31":null,"32":null,"33":null,"34":null,"35":null,"36":null,"37":null,"38":null,"39":null,"40":null,"41":null,"42":null,"43":null,"44":null,"45":null,"46":null,"47":null,"48":null,"49":null,"50":null,"51":null,"52":null,"53":null,"54":null,"55":null,"56":null,"57":null,"58":null,"59":null,"60":null,"61":null,"62":null}},{"sx":1,"sy":1,"depth":63,"w":{"0":-274368123957728840000,"1":-3.5222934832411936e+21,"2":-1.520147713819903e+21,"3":-348521670973324850000,"4":-3.4481399362256235e+21,"5":-1.5943012608355457e+21,"6":-0.0705224988469841,"7":-0.16206085232024803,"8":-44492128209361940000,"9":-422675217988951930000,"10":-3.3739863892098925e+21,"11":-1.6684548078510893e+21,"12":-0.008013262014182874,"13":0.13199894424866623,"14":-44492128209361940000,"15":-496828765004540200000,"16":-3.299832842194288e+21,"17":-1.7426083548667165e+21,"18":0.05331583771819239,"19":-0.1106385860991496,"20":-44492128209361940000,"21":-570982312020155900000,"22":-3.225679295178837e+21,"23":-1.8167619018823044e+21,"24":-0.02287988478573553,"25":-0.13958730304207354,"26":-44492128209361940000,"27":-645135859035758500000,"28":-3.1515257481631656e+21,"29":-1.8167619018823044e+21,"30":-44492128209361940000,"31":-0.11479061109086316,"32":0.04928123505493197,"33":-719289406051373500000,"34":-3.0773722011475834e+21,"35":-1.8167619018823044e+21,"36":-44492128209361940000,"37":0.13437201804248516,"38":0.004176488686463168,"39":-793442953066967100000,"40":-3.0032186541320726e+21,"41":-1.890915448897921e+21,"42":-0.05641968821245494,"43":0.06311968122293364,"44":-44492128209361940000,"45":-867596500082591500000,"46":-2.9290651071162986e+21,"47":-1.8167619018823044e+21,"48":-0.2268954905960345,"49":-44492128209361940000,"50":-0.10283528411871873,"51":-941750047098154500000,"52":-2.8549115601007233e+21,"53":-1.890915448897921e+21,"54":0.10301669147211004,"55":-0.0472078217752279,"56":-44492128209361940000,"57":-1.0159035941137723e+21,"58":-2.78075801308519e+21,"59":-1.8167619018823044e+21,"60":0.00368255285482474,"61":-44492128209361940000,"62":0.013140760187081884}},{"sx":1,"sy":1,"depth":63,"w":{"0":-3.24996348130931e+23,"1":-1.5230542630505255e+22,"2":-2.6946344653971756e+22,"3":-3.273395085356208e+23,"4":-1.288738222581254e+22,"5":-2.6946344653971756e+22,"6":-1.4058962428158728e+21,"7":-0.08693018243449596,"8":-0.08744573546658634,"9":-3.296826689403227e+23,"10":-1.0544221821118903e+22,"11":-2.4603184249277143e+22,"12":0.01634085706290736,"13":-1.4058962428158728e+21,"14":0.11108819504674984,"15":-3.320258293450124e+23,"16":-8.201061416426271e+21,"17":-2.4603184249277143e+22,"18":-1.4058962428158728e+21,"19":-0.12129068677770806,"20":-0.11499089012641922,"21":-3.343689897496986e+23,"22":-5.857901011732964e+21,"23":-2.4603184249277143e+22,"24":-1.4058962428158728e+21,"25":-0.12671926130754188,"26":0.015161408306387767,"27":-3.3671215015440876e+23,"28":-3.514740607039634e+21,"29":-2.4603184249277143e+22,"30":-1.4058962428158728e+21,"31":-0.020433510079448457,"32":0.06458617453371392,"33":-3.390553105591045e+23,"34":-1.1715802023466233e+21,"35":-2.4603184249277143e+22,"36":-1.4058962428158728e+21,"37":-0.019702533540713826,"38":-0.08063079127647862,"39":-3.413984709637941e+23,"40":-3.514740607039634e+21,"41":-2.226002384458519e+22,"42":0.04482208084929594,"43":-1.4058962428158728e+21,"44":0.07179978098978247,"45":-3.4374163136849433e+23,"46":-5.857901011732964e+21,"47":-2.226002384458519e+22,"48":-1.4058962428158728e+21,"49":-0.13109141375100108,"50":0.20241792009374673,"51":-3.460847917731687e+23,"52":-8.201061416426271e+21,"53":-1.9916863439892134e+22,"54":0.11742769698253616,"55":-1.4058962428158728e+21,"56":0.13032370863025936,"57":-3.4842795217788655e+23,"58":-1.0544221821118903e+22,"59":-1.75737030351985e+22,"60":0.08724856455837632,"61":-1.4058962428158728e+21,"62":-0.04396339045155975}},{"sx":1,"sy":1,"depth":63,"w":{"0":-2.2120518050257143,"1":-0.6198174034441961,"2":-0.472152919957566,"3":-2.020036813072657,"4":-0.5463030700698767,"5":-0.5136845124018293,"6":-0.10922432466909433,"7":0.11884730380835402,"8":0.21880203102281803,"9":-2.1149838614227825,"10":-0.3696144418756636,"11":-0.46076775281123505,"12":0.2434644705586917,"13":-0.023219521857120434,"14":-0.34522698000307134,"15":-2.1514971017275193,"16":-0.6756384871954082,"17":-0.4670384940662744,"18":0.07656492848417537,"19":0.06531635932830566,"20":0.024915996786642004,"21":-2.288004317595758,"22":-0.577961459445245,"23":-0.32140469212556944,"24":0.04529659351595673,"25":-0.11867047594532648,"26":0.08932255718405113,"27":-2.1884170798006863,"28":-0.6081440115032507,"29":-0.3726513750772936,"30":0.06268914455664755,"31":0.01599032977710986,"32":0.22199456050747027,"33":-2.2175589197977716,"34":-0.5244524516432663,"35":-0.6443324094650494,"36":-0.23706997311620076,"37":0.10443458067490845,"38":0.07255729774142991,"39":-2.2925796332414783,"40":-0.39659353430715105,"41":-0.5011834378840986,"42":0.009816906942247575,"43":0.013389115336643519,"44":0.07390200262821839,"45":-2.2464713361079607,"46":-0.3341081453455926,"47":-0.2730211744819481,"48":-0.1436445285251466,"49":0.1294469261066759,"50":0.14305910939553385,"51":-2.2646608986774357,"52":-0.6713538754586367,"53":-0.5774299632825909,"54":-0.04954178943548668,"55":0.12311619912825876,"56":-0.2323032266653421,"57":-2.148291048649867,"58":-0.6625121035989872,"59":-0.46277212766803894,"60":0.048144966491285454,"61":0.14750844125255433,"62":0.06691502002554305}},{"sx":1,"sy":1,"depth":63,"w":{"0":-2.0203273530150083,"1":-0.7753754386922903,"2":-0.4241118793450986,"3":-2.112846318130724,"4":-0.7463778727978746,"5":-0.6195877796864347,"6":0.10344780521544099,"7":-0.11196513512309055,"8":-0.06733293193434835,"9":-2.111356756436881,"10":-0.7998564707143007,"11":-0.3443689011327996,"12":-0.21920502962377036,"13":-0.04120591351352854,"14":-0.07372564346875446,"15":-1.9931421343712112,"16":-0.7555030925321646,"17":-0.25539290456243785,"18":0.012420214272003325,"19":0.20251483707698517,"20":0.20400942089298854,"21":-1.994670150730194,"22":-0.753914273800481,"23":-0.5027250979602255,"24":0.2650041431323163,"25":0.08554519481553965,"26":-0.34192773334153376,"27":-2.308625566825577,"28":-0.7563650552582204,"29":-0.6173650012854047,"30":0.34104371540202855,"31":-0.23528943872948965,"32":0.290766655677275,"33":-2.212570298059416,"34":-0.8515289179385407,"35":-0.46410812210652264,"36":0.10632169323069444,"37":0.029950707332429962,"38":-0.09738515653735524,"39":-2.2778343676915007,"40":-0.924541643665015,"41":-0.5960237451193368,"42":-0.1851975216204609,"43":0.2780130598519429,"44":-0.12983220873657755,"45":-2.327774420716126,"46":-0.7492252615762615,"47":-0.6426952349998747,"48":0.10670415700963427,"49":0.04558546868149013,"50":-0.02939292228327052,"51":-2.08206180536066,"52":-0.7572490696893401,"53":-0.3438509881755883,"54":-0.08130908315450706,"55":0.18487795987722713,"56":0.07935112158415782,"57":-2.315396967490407,"58":-0.7324009074550187,"59":-0.6131722940939247,"60":0.009857281830799381,"61":0.038038970626498546,"62":0.052849433571970625}},{"sx":1,"sy":1,"depth":63,"w":{"0":-5293.090656250428,"1":-2367.6307716052183,"2":-1401.6426857385904,"3":-5312.476560416548,"4":-2387.1423004236194,"5":-1380.4338211166908,"6":-16.351638527106164,"7":-14.50044298718959,"8":-2.0157978646533423,"9":-5332.032276347568,"10":-2406.448913402524,"11":-1383.273159923437,"12":-13.596893539447148,"13":-9.019744223478758,"14":-10.735327119175707,"15":-5350.954759803704,"16":-2426.0832216342956,"17":-1398.359661386929,"18":-11.71315093275669,"19":-6.050954384599257,"20":-15.496659696305208,"21":-5370.222362935957,"22":-2445.465029679929,"23":-1403.5282664460788,"24":-20.706665101175428,"25":-4.945089968754332,"26":-7.662526016422387,"27":-5389.293771095855,"28":-2464.8911933698887,"29":-1418.1312153217962,"30":-9.75969989481678,"31":-7.409373876287227,"32":-15.99485076259102,"33":-5408.4227559777955,"34":-2484.258218460402,"35":-1410.920272906035,"36":-3.7500459905428167,"37":-16.66469459337959,"38":-12.814039788321814,"39":-5428.039818790049,"40":-2504.4507566670027,"41":-1412.8107353784558,"42":-4.078712254778473,"43":-14.353796959110529,"44":-15.163567877184489,"45":-5447.33866802984,"46":-2525.024856726869,"47":-1411.2968936241282,"48":-7.203548837754878,"49":-13.272761955394984,"50":-12.398662440866762,"51":-5531.334361626921,"52":-2559.331684862279,"53":-1427.7402871882414,"54":-10.726571020142142,"55":-6.2928548497898165,"56":-16.106133033564756,"57":-5457.4811352400475,"58":-2599.4314997264196,"59":-1429.972189302009,"60":-14.887869733217794,"61":-8.68506066547575,"62":-9.908354006108357}},{"sx":1,"sy":1,"depth":63,"w":{"0":null,"1":null,"2":null,"3":null,"4":null,"5":null,"6":null,"7":null,"8":null,"9":null,"10":null,"11":null,"12":null,"13":null,"14":null,"15":null,"16":null,"17":null,"18":null,"19":null,"20":null,"21":null,"22":null,"23":null,"24":null,"25":null,"26":null,"27":null,"28":null,"29":null,"30":null,"31":null,"32":null,"33":null,"34":null,"35":null,"36":null,"37":null,"38":null,"39":null,"40":null,"41":null,"42":null,"43":null,"44":null,"45":null,"46":null,"47":null,"48":null,"49":null,"50":null,"51":null,"52":null,"53":null,"54":null,"55":null,"56":null,"57":null,"58":null,"59":null,"60":null,"61":null,"62":null}},{"sx":1,"sy":1,"depth":63,"w":{"0":-0.5742696301062696,"1":0.23120079622800815,"2":-0.12180235986367613,"3":-0.5407025843486786,"4":-0.09380058979233866,"5":-0.1102385311457246,"6":-0.15305734694877302,"7":0.06274892919964113,"8":0.02011080269531119,"9":-0.6108953750963757,"10":-0.30628112830133325,"11":-0.07624626589167477,"12":0.16646114465163922,"13":0.12209956936882109,"14":0.25952620503693286,"15":-0.5656661660822088,"16":-0.1751307009528879,"17":-0.1757198339319342,"18":-0.2970752215941063,"19":-0.040000219295846386,"20":0.007574609080885565,"21":-0.7552911878999433,"22":-0.08232932267891171,"23":0.15989662269370122,"24":-0.06920022930131309,"25":-0.024217390837012406,"26":0.00008802000938253643,"27":-0.6948635522647905,"28":-0.06503472909353908,"29":-0.41821788571870205,"30":0.05896218553267576,"31":-0.007777840758485117,"32":-0.04681014621355843,"33":-0.6087632515551623,"34":-0.13029902712766792,"35":-0.04548486659997297,"36":-0.13384882610898466,"37":0.27243398849443,"38":0.06824040335415524,"39":-0.5244267299842391,"40":-0.12795077429406254,"41":-0.012439936468521744,"42":0.014478046615975279,"43":0.013486464417143216,"44":0.11583024347430736,"45":-0.892042159904851,"46":-0.19298087662317018,"47":-0.05792440999571237,"48":-0.17935256366254315,"49":-0.009757500988795484,"50":0.10399123012439522,"51":-0.7809546822292978,"52":-0.18036719042407437,"53":-0.0005009201876197215,"54":0.09533015235669803,"55":-0.19214688869479146,"56":-0.044403569541476805,"57":-0.9269077039260297,"58":0.01852361601727168,"59":-0.051465467171299434,"60":0.11196154096269274,"61":-0.08763914409652376,"62":-0.07976163730230178}},{"sx":1,"sy":1,"depth":63,"w":{"0":-2.7607542942623414e+99,"1":-9.896788383308817e+98,"2":-7.291589510116263e+98,"3":-2.714633506810443e+99,"4":-1.0051665299203602e+99,"5":-7.283370344388885e+98,"6":-4.1478586971247944e+96,"7":-6.893283988408058e+96,"8":-6.400134044760062e+96,"9":-2.6672071782461946e+99,"10":-1.0188603897622768e+99,"11":-7.294215708417935e+98,"12":-7.176615148991877e+96,"13":-4.806969869774506e+96,"14":-5.457691711526147e+96,"15":-2.674414064659318e+99,"16":-1.0193848744131672e+99,"17":-7.309703097457103e+98,"18":-3.7009715497118835e+96,"19":-6.405530919111867e+96,"20":-7.334774261469015e+96,"21":-2.678502102628743e+99,"22":-1.0199093590640537e+99,"23":-7.275749452651754e+98,"24":-5.847477925508987e+96,"25":-6.815508746556174e+96,"26":-4.77829005822722e+96,"27":-2.6852754306402964e+99,"28":-1.0194831473679355e+99,"29":-7.327225259304869e+98,"30":-4.692661216935068e+96,"31":-4.830033557086246e+96,"32":-7.91858195627141e+96,"33":-2.688929910208327e+99,"34":-1.019262359269475e+99,"35":-7.370790802314424e+98,"36":-3.925994739637041e+96,"37":-5.4506747050475585e+96,"38":-8.064607285608464e+96,"39":-2.6820893597577004e+99,"40":-1.0218198027023759e+99,"41":-7.402973182106844e+98,"42":-4.658372651481213e+96,"43":-5.425980645623872e+96,"44":-7.356923433187193e+96,"45":-2.685608800001232e+99,"46":-1.022135370787994e+99,"47":-7.425357972795669e+98,"48":-5.949348188083372e+96,"49":-5.074420550444778e+96,"50":-6.417507991764992e+96,"51":-2.691964849324493e+99,"52":-1.0224509388735923e+99,"53":-7.376449434414627e+98,"54":-7.027751038722959e+96,"55":-6.674018997227515e+96,"56":-3.7395066943422186e+96,"57":-2.6946440256446242e+99,"58":-1.022766506959244e+99,"59":-7.333527376601487e+98,"60":-5.0465039508673655e+96,"61":-7.485048124090237e+96,"62":-4.909724655335135e+96}},{"sx":1,"sy":1,"depth":63,"w":{"0":-5.546384270208819e+21,"1":-2.502931994444277e+21,"2":-1.9210403572403158e+21,"3":-502510732897146800000,"4":-1.4902101991356212e+21,"5":-1.8489206350657172e+21,"6":0.090407859355687,"7":-43271833304709685000,"8":0.04305893648052881,"9":-564762735456072430000,"10":-1.5524622016945937e+21,"11":-1.9161064974324665e+21,"12":-2960315884678969300,"13":-0.23607412276883766,"14":-40311517420029890000,"15":-627014738014988400000,"16":-1.6147142042534418e+21,"17":-1.9210403572403158e+21,"18":-40311517420029890000,"19":-0.2339897548280933,"20":-2960315884678969300,"21":-324161114796825050000,"22":-1.7559079637371535e+21,"23":-1.9882262196069212e+21,"24":-2960315884678969300,"25":0.0950468246196675,"26":-40311517420029890000,"27":-396280836971349150000,"28":-1.818159966296085e+21,"29":-1.9882262196069212e+21,"30":-43271833304709685000,"31":-0.14618029819094805,"32":0.12705516152442084,"33":-468400559145858200000,"34":-1.8804119688550485e+21,"35":-2.060345941781557e+21,"36":-0.10555664317138971,"37":0.25845134995678165,"38":-43271833304709685000,"39":-540520281320357600000,"40":-1.9426639714139277e+21,"41":-2.065279801589354e+21,"42":-40311517420029890000,"43":0.1208551019716118,"44":-2960315884678969300,"45":-612640003494916800000,"46":-2.0049159739728695e+21,"47":-2.065279801589354e+21,"48":-43271833304709685000,"49":-0.15237122874127715,"50":-0.07727658203357064,"51":-684759725669438200000,"52":-2.0671679765317343e+21,"53":-2.065279801589354e+21,"54":-43271833304709685000,"55":-0.04433600954073676,"56":-0.0688415845042208,"57":-756879447843920300000,"58":-2.1294199790907094e+21,"59":-2.065279801589354e+21,"60":-43271833304709685000,"61":-0.007842069777937728,"62":0.056179959462898256}},{"sx":1,"sy":1,"depth":63,"w":{"0":-1040636.7055966181,"1":-390703.7108959448,"2":-264236.0949676046,"3":-1042793.4265481874,"4":-391874.5540263014,"5":-264250.53302980785,"6":-2073.540585030889,"7":-2113.4569534545785,"8":-2122.220273606327,"9":-1044949.7831275869,"10":-393045.63390593487,"11":-264402.5286861747,"12":-1728.7007703538557,"13":-2244.5207789211295,"14":-2335.882240440478,"15":-1047106.5655568675,"16":-394216.50450991467,"17":-266108.43333747133,"18":-2202.4804293526768,"19":-1541.6502146201242,"20":-2564.8466197878183,"21":-1049263.19438254,"22":-395387.45523901173,"23":-267251.85270976945,"24":-2980.497200182042,"25":-1321.1971537106524,"26":-2007.3222158655335,"27":-1051419.7640796932,"28":-397379.1855769218,"29":-268676.6654943521,"30":-1858.71809190401,"31":-1797.4220331056517,"32":-2652.6113792729184,"33":-1053576.513438252,"34":-399370.6350991225,"35":-269189.8217086509,"36":-1499.1350892318915,"37":-2251.0036618541394,"38":-2559.0089032982305,"39":-1055733.2875777506,"40":-401143.60471218923,"41":-270376.8191391501,"42":-1310.634128068589,"43":-2142.9783473000716,"44":-2855.3683149336493,"45":-1057889.9517937934,"46":-402916.0138391076,"47":-270367.0882973852,"48":-2033.821759336344,"49":-2140.3360183834307,"50":-2134.578586185526,"51":-1054877.2568574639,"52":-403896.52910988586,"53":-272466.0157958801,"54":-2139.221672293958,"55":-1455.084831169318,"56":-2714.436976735469,"57":-1052225.6244861379,"58":-407064.7807730264,"59":-272481.2892634515,"60":-2414.102361278375,"61":-1943.0530077322414,"62":-1952.2389984402955}},{"sx":1,"sy":1,"depth":63,"w":{"0":null,"1":null,"2":null,"3":null,"4":null,"5":null,"6":null,"7":null,"8":null,"9":null,"10":null,"11":null,"12":null,"13":null,"14":null,"15":null,"16":null,"17":null,"18":null,"19":null,"20":null,"21":null,"22":null,"23":null,"24":null,"25":null,"26":null,"27":null,"28":null,"29":null,"30":null,"31":null,"32":null,"33":null,"34":null,"35":null,"36":null,"37":null,"38":null,"39":null,"40":null,"41":null,"42":null,"43":null,"44":null,"45":null,"46":null,"47":null,"48":null,"49":null,"50":null,"51":null,"52":null,"53":null,"54":null,"55":null,"56":null,"57":null,"58":null,"59":null,"60":null,"61":null,"62":null}},{"sx":1,"sy":1,"depth":63,"w":{"0":-0.06004509670340587,"1":0.15223228459167065,"2":0.13668321810817113,"3":-0.13013505046328938,"4":0.07213261760199328,"5":0.17430885720287032,"6":-0.12877671233792634,"7":0.15347892795176957,"8":-0.0598146029391328,"9":-0.0467975793220113,"10":-0.03581813983284134,"11":-0.09894808974737472,"12":0.08830473891605557,"13":-0.06900703409408647,"14":-0.20411002685165414,"15":-0.22140993168094902,"16":-0.15285235255573143,"17":0.013136970113524873,"18":-0.11102670846166696,"19":0.1195174459868638,"20":-0.008275327894398951,"21":0.1823981599540377,"22":-0.02599755136284318,"23":0.02649222609589987,"24":0.11646557246667066,"25":-0.016225670413553755,"26":-0.06183203652812895,"27":-0.003745331465914078,"28":-0.16027552848514656,"29":-0.09432916561208987,"30":-0.19973743038599318,"31":0.22119097406578556,"32":0.0962541318760854,"33":-0.020274989497776542,"34":0.04378401688331137,"35":-0.05952415445104206,"36":-0.19952519608616137,"37":0.054765563889893315,"38":0.09744427154791803,"39":-0.2269947120029777,"40":-0.06457197601289957,"41":0.12102604256391962,"42":0.006024512501322643,"43":0.09025455144005295,"44":0.004037287992566764,"45":-0.04050602956499623,"46":-0.14506610608360426,"47":-0.010876105862563726,"48":0.04963149083888449,"49":0.14366395355501807,"50":0.05197404357662936,"51":0.06413902173631082,"52":0.03555403424344543,"53":-0.020612431131744,"54":-0.015333416394895698,"55":-0.08728948020859108,"56":-0.1480339386843203,"57":-0.007226135110462111,"58":-0.08677554182130155,"59":-0.03216462343717183,"60":0.044457635032482366,"61":-0.015756221693252997,"62":0.05703098811134163}},{"sx":1,"sy":1,"depth":63,"w":{"0":-0.07225503551604082,"1":0.04392888402883772,"2":-0.07715238103649383,"3":-0.05371978392857074,"4":0.16847187838127287,"5":0.06154394288783185,"6":-0.13831423109897725,"7":-0.14246921874774848,"8":-0.12962209205497946,"9":0.02570639028997698,"10":-0.17058037058265357,"11":-0.06653022590178184,"12":0.0682374448193762,"13":0.01402988044767035,"14":0.08486036819522023,"15":-0.0948469544656935,"16":0.09916500411115316,"17":-0.08787342330580097,"18":-0.0705732630519722,"19":0.19300554767176403,"20":0.07234296377049837,"21":0.03876188961328566,"22":-0.20327986444268636,"23":0.06780437592975487,"24":0.058475887260919276,"25":-0.13472629516330306,"26":-0.13607389885896862,"27":-0.12717335766822638,"28":0.03997646196367515,"29":0.07336416261883924,"30":0.013345004898580915,"31":0.049174594429508445,"32":0.2125698044540219,"33":-0.018279831819223852,"34":-0.1730864343294826,"35":0.28104555525214336,"36":0.008855386499142491,"37":0.21460980039101277,"38":0.1591095882068569,"39":-0.022968180724822845,"40":-0.024919270703176188,"41":0.08535784854181443,"42":0.10326248829700234,"43":0.11365114096148458,"44":0.054295698997363216,"45":0.018938363400910416,"46":0.022397512156161026,"47":-0.2461433367123386,"48":0.12319888875108854,"49":-0.07326632600991387,"50":0.01806906866745975,"51":-0.2688711117542562,"52":-0.16878189129753648,"53":-0.027656276183674253,"54":-0.051254719930550675,"55":-0.1959837299181897,"56":-0.17734117978436972,"57":0.07808166672428962,"58":0.06214321321538943,"59":-0.07170855783246025,"60":-0.05194066979825168,"61":-0.10525671861838017,"62":0.022919067470544285}},{"sx":1,"sy":1,"depth":63,"w":{"0":-3964.758362499158,"1":-5615.366681684945,"2":-3089.0735553952604,"3":-4074.2677392655287,"4":-5648.198916054076,"5":-3063.4985328588828,"6":-11.552168775279588,"7":-34.58962269338437,"8":-19.253787934203174,"9":-4183.850772403073,"10":-5681.41389400946,"11":-3044.2160448638765,"12":-30.263318856141222,"13":-23.4534318022871,"14":-11.69619960427636,"15":-4293.250577287437,"16":-5714.169274863288,"17":-3052.8486555701766,"18":-28.167996786871942,"19":-16.229128286495627,"20":-21.453781464701926,"21":-4402.801089690114,"22":-5747.353465916197,"23":-3041.6754308642694,"24":-7.8692724023033005,"25":-32.197486829941745,"26":-25.839442893882694,"27":-4512.297094261486,"28":-5780.118307589733,"29":-3043.1078494047265,"30":-2.441559451387547,"31":-31.049804823368802,"32":-32.0638050077229,"33":-4621.556241287613,"34":-5812.973336754384,"35":-3033.915199644053,"36":-0.0721231826702138,"37":-35.698063760684676,"38":-29.915234921897838,"39":-4731.217739472316,"40":-5845.897243422072,"41":-3017.055758615348,"42":-37.897641411343756,"43":-18.729378870724055,"44":-9.137862221805218,"45":-4840.575673814122,"46":-5878.795442402879,"47":-2967.0876071938874,"48":-27.89806679508348,"49":-33.94298255764703,"50":-3.904707541334592,"51":-4949.983397842613,"52":-5911.977478596785,"53":-2991.434073983766,"54":-28.646827017349935,"55":-11.267824082201352,"56":-25.638002490869287,"57":-5059.543392030215,"58":-5944.849135525317,"59":-3035.0205024643296,"60":-22.618666537565737,"61":-8.710364429351353,"62":-34.601243968957384}},{"sx":1,"sy":1,"depth":63,"w":{"0":-1282664.4833774972,"1":-479174.51001371595,"2":-324916.5182903448,"3":-1285367.7592156809,"4":-480643.06947338214,"5":-324703.66916899435,"6":-2568.957642503401,"7":-2660.814476645276,"8":-2532.8543845612276,"9":-1288071.2061265383,"10":-482111.64958983194,"11":-324839.9130730307,"12":-2142.612960911279,"13":-2768.9349919915917,"14":-2850.995257900897,"15":-1290774.650993916,"16":-483580.18752432417,"17":-326961.0284768471,"18":-2708.061153938745,"19":-1890.8317843169552,"20":-3163.549003395661,"21":-1293477.8426448982,"22":-485048.87165294064,"23":-328394.1991632554,"24":-3704.369224979893,"25":-1598.9856166589134,"26":-2459.0483202941214,"27":-1296181.1551411543,"28":-487544.5443594467,"29":-330243.52492320654,"30":-2279.783524516773,"31":-2186.780762544383,"32":-3296.4406809769976,"33":-1298884.6206114013,"34":-490040.2873795504,"35":-330797.73623258906,"36":-1831.1676523801807,"37":-2799.334719146358,"38":-3132.0209004595467,"39":-1301587.7444523408,"40":-492299.1536255439,"41":-332249.53176875116,"42":-1583.7007880675903,"43":-2653.6436791838,"44":-3525.129237853816,"45":-1304291.3470037482,"46":-494557.54551016056,"47":-332155.88182472845,"48":-2475.6731810708825,"49":-2671.4284247286582,"50":-2615.4310119129855,"51":-1301341.8145834396,"52":-496039.71218301036,"53":-334778.6318902271,"54":-2628.393281746575,"55":-1780.269073630432,"56":-3353.9958665101676,"57":-1297507.9072082036,"58":-500190.55054096284,"59":-334842.00980966026,"60":-2988.1326201162024,"61":-2368.0548502643182,"62":-2406.103907258415}},{"sx":1,"sy":1,"depth":63,"w":{"0":0.012643216196495133,"1":0.04634229077570044,"2":-0.13212343486697084,"3":-0.006440626257580606,"4":-0.09059681605820986,"5":-0.18763602990261424,"6":0.08378214285362885,"7":-0.2720393152330068,"8":-0.10921775333838743,"9":-0.1375769600230586,"10":0.04919194203680695,"11":-0.08625363064505615,"12":0.07295138482288134,"13":0.169274236652722,"14":-0.07131213569082236,"15":-0.2222193805913604,"16":0.08765223407704155,"17":0.09137231634645121,"18":-0.09311995824471248,"19":0.1298398405527652,"20":-0.011917395920940663,"21":0.104674980334291,"22":-0.15181321396028388,"23":-0.1330211951907822,"24":0.09071259949950329,"25":0.019652536024419808,"26":-0.11194695445647808,"27":-0.2908697233312744,"28":-0.14069974742935026,"29":-0.11023700073843998,"30":0.12670132566332046,"31":0.06312744139227126,"32":-0.12439546610459111,"33":-0.159972673597194,"34":-0.08178344285658316,"35":-0.1946009871018026,"36":-0.028640842666975686,"37":0.02309753477364004,"38":0.00047584763413478597,"39":-0.22548917406478572,"40":-0.28607230780924287,"41":-0.07683054327134135,"42":-0.19942497860954542,"43":-0.10757436145584776,"44":-0.09681518833242346,"45":-0.1128460394165726,"46":-0.013700347967736348,"47":0.12333253806963737,"48":0.09759697225390221,"49":-0.16937411077876816,"50":0.057598383015655764,"51":-0.08256994488298114,"52":-0.08099233038490922,"53":-0.1537297885433528,"54":0.06622757718147933,"55":-0.18325578724416647,"56":-0.17226358446804144,"57":-0.13198110984102274,"58":-0.05964098294612359,"59":0.0746060033333532,"60":0.077862506237744,"61":-0.12696133545978402,"62":0.0498970344207943}},{"sx":1,"sy":1,"depth":63,"w":{"0":-0.26169248783782745,"1":-0.27698789815468944,"2":-0.17002620508340233,"3":0.05505343041426065,"4":-0.017769616822643112,"5":-0.07994179376280344,"6":0.23825214248070936,"7":0.048324000196085445,"8":-0.2615606406605237,"9":0.03809515517143739,"10":-0.0611102839285041,"11":0.03881313203599596,"12":0.040439649174903586,"13":-0.019197769481176824,"14":-0.008002554335963646,"15":-0.172159242524673,"16":-0.11169874007137656,"17":0.13400190237052512,"18":-0.036102769945828166,"19":-0.14648902349795445,"20":-0.04684058242332755,"21":-0.0842915037455254,"22":-0.0863462014784747,"23":-0.08933962454424195,"24":-0.25012836360867385,"25":-0.18046400157223702,"26":-0.005372850131931463,"27":-0.013863180999467694,"28":0.03208520362321291,"29":0.05693774970781022,"30":-0.05374558373483866,"31":-0.03507768625958875,"32":-0.06795999544442752,"33":0.07318797545176245,"34":0.1544305783387019,"35":-0.19893534829981546,"36":0.1083843647429444,"37":0.037994661957827976,"38":0.17167721904045102,"39":-0.02225153696603054,"40":-0.03894667124933018,"41":-0.08340224428437241,"42":-0.03705012056289189,"43":-0.017953316212122202,"44":0.04533183731583487,"45":-0.04409892512604706,"46":-0.09714654967167068,"47":0.04761694489949054,"48":0.12497175599522345,"49":0.11718937156012978,"50":0.043417476166166064,"51":-0.19173766642666823,"52":0.1736202891264145,"53":0.23519316621689854,"54":-0.09372079543224823,"55":0.06635420311243281,"56":-0.08718130086814516,"57":-0.05582257173046335,"58":0.025137776091168528,"59":-0.07635459714008973,"60":-0.1771630352140629,"61":0.09218360765994245,"62":0.04226314633714018}},{"sx":1,"sy":1,"depth":63,"w":{"0":-40538727920928180000,"1":-520429615201077200000,"2":-224606465507839280000,"3":-51495140872526220000,"4":-509473202249483200000,"5":-235562878459439400000,"6":-0.13030395635679712,"7":0.2198007473114151,"8":-6573847770961076000,"9":-62451553824130300000,"10":-498516789297883200000,"11":-246519291411045700000,"12":-0.06277015686848848,"13":-0.023585072465792535,"14":-6573847770961076000,"15":-73407966775732370000,"16":-487560376346262200000,"17":-257475704362645900000,"18":0.1373679294234548,"19":0.09366547265512909,"20":-6573847770961076000,"21":-84364379727331740000,"22":-476603963394679700000,"23":-268432117314247980000,"24":0.12944615183933603,"25":0.032104063762944064,"26":-6573847770961076000,"27":-95320792678937310000,"28":-465647550443057700000,"29":-268432117314247980000,"30":-6573847770961076000,"31":-0.2524209785902468,"32":0.15473434114683757,"33":-106277205630539890000,"34":-454691137491471000000,"35":-268432117314247980000,"36":-6573847770961076000,"37":0.07735739745057807,"38":-0.013649787789618216,"39":-117233618582134370000,"40":-443734724539880000000,"41":-279388530265853330000,"42":-0.05326515792427526,"43":0.0938500171413121,"44":-6573847770961076000,"45":-128190031533735820000,"46":-432778311588263100000,"47":-268432117314247980000,"48":-0.16664121058580278,"49":-6573847770961076000,"50":-0.08599254419257742,"51":-139146444485343310000,"52":-421821898636674600000,"53":-279388530265853330000,"54":-0.026125098420075692,"55":-0.010634630101387758,"56":-6573847770961076000,"57":-150102857436947000000,"58":-410865485685077640000,"59":-268432117314247980000,"60":0.005438909895959782,"61":-6573847770961076000,"62":-0.05660449574819721}},{"sx":1,"sy":1,"depth":63,"w":{"0":0.022258718522330367,"1":-0.10140824193875694,"2":-0.16177390036238737,"3":-0.17901674927234912,"4":0.33100283488146626,"5":-0.13120611963381656,"6":-0.12044416318565596,"7":0.015968979801552964,"8":-0.020921074914477252,"9":-0.3048016730830992,"10":0.20967594562327788,"11":0.10927073298709687,"12":0.12953863974295207,"13":-0.23893590447909036,"14":0.16205578970004358,"15":-0.13230184590861047,"16":-0.04214023341363258,"17":0.028955959231612777,"18":-0.12434772261015659,"19":-0.09314042088376417,"20":-0.059852225873835076,"21":-0.23485768441635643,"22":0.02790720403399346,"23":0.015950097180192756,"24":0.1993176487607136,"25":-0.17363088456870784,"26":0.006277004210561546,"27":-0.1695875584110038,"28":-0.10455090678385351,"29":-0.192348929944423,"30":0.02009854155976707,"31":-0.12591838017306295,"32":-0.0310257975789323,"33":-0.10897453129197662,"34":0.06188092488127148,"35":-0.09945624804869743,"36":0.045585503409317794,"37":-0.05455549245812096,"38":-0.07023280487402135,"39":0.033352980239327486,"40":-0.13801796012020429,"41":-0.3309284617376556,"42":-0.09907199754137616,"43":0.03921725350828948,"44":0.07165443564087588,"45":-0.1087539185883797,"46":-0.050628383912239304,"47":-0.1312170198241869,"48":0.13229737081199203,"49":0.12619054584747538,"50":0.1812309775697736,"51":-0.12390712823023044,"52":-0.12160979093636497,"53":-0.008601075333793196,"54":0.058032275151601455,"55":-0.030970853705569415,"56":0.023439372331079285,"57":-0.2332336061005339,"58":-0.04857185574044603,"59":-0.19912740078232663,"60":0.09181417463472918,"61":0.1505264410929264,"62":-0.12888304275053813}},{"sx":1,"sy":1,"depth":63,"w":{"0":-1.5422362970795662,"1":-0.6334895183113844,"2":-0.1821667748263018,"3":-1.33557718899731,"4":-0.5330388433045204,"5":-0.36262831516879795,"6":0.017896493935697484,"7":-0.05592346314272595,"8":-0.08555049117629385,"9":-1.5023519990048104,"10":-0.6751290853459233,"11":-0.33920943671300546,"12":0.002804700879281418,"13":-0.062027759118860146,"14":-0.12326469475028734,"15":-1.1516704373018982,"16":-0.6930726821711486,"17":-0.4131559677454262,"18":0.186965747068,"19":0.03941291079183051,"20":0.1417449006125676,"21":-1.457664333031903,"22":-0.6406360557103186,"23":-0.370029558847591,"24":-0.07676256038412088,"25":0.25576521816346964,"26":0.22257709591953911,"27":-1.2960461380599149,"28":-0.5423224578204726,"29":-0.3195369193378251,"30":-0.003824609168861396,"31":0.09357403882410222,"32":-0.10367256122219776,"33":-1.2582549183112635,"34":-0.5755189357844149,"35":-0.2506182746930367,"36":0.012703793311307056,"37":-0.12570194712989533,"38":0.027480754143228956,"39":-1.4372324411005435,"40":-0.6195498372226326,"41":-0.30268212339453726,"42":-0.011507093452777336,"43":-0.13776767599086792,"44":0.012330552899304794,"45":-1.3052485876690416,"46":-0.7890575243899126,"47":-0.20716263361193935,"48":-0.007585062222982549,"49":0.07481296532684377,"50":-0.1326818997136781,"51":-1.3162508331685716,"52":-0.6006492920797105,"53":-0.19385318937442805,"54":-0.18600163261778618,"55":0.08816886054979256,"56":-0.2339272636446336,"57":-1.3518426148254203,"58":-0.5523743956048345,"59":-0.3904341965676615,"60":-0.09682305737755677,"61":-0.1649985521502346,"62":-0.047781714110632194}},{"sx":1,"sy":1,"depth":63,"w":{"0":-7.144281400282665,"1":-8.720897433915994,"2":-7.528758488407073,"3":-7.464155459172138,"4":-9.355306298862365,"5":-8.538075343485652,"6":0.1329450846986216,"7":0.35940185860525475,"8":-0.43880331988114357,"9":-7.730239521326027,"10":-10.297616023422247,"11":-9.672171420238152,"12":0.3095854605209657,"13":0.12300615759463582,"14":-0.5841951639735683,"15":-7.959025482852001,"16":-11.458517300329989,"17":-8.806886878467738,"18":-0.2393385171081064,"19":-0.31963112651146364,"20":0.4038470076684537,"21":-8.5241977280962,"22":-12.110017552750492,"23":-9.386469220156805,"24":0.2819215428594721,"25":-0.10805758663787335,"26":-0.5858012603805283,"27":-8.551340627564986,"28":-12.931636390400056,"29":-8.885375163460436,"30":0.21122379772125932,"31":-0.13241143489764393,"32":0.1727308865300864,"33":-8.765705744180531,"34":-13.699153974971617,"35":-7.029185745338083,"36":-0.02793944748702476,"37":-0.4379209834137919,"38":0.4777553499071145,"39":-8.887319859503833,"40":-14.613890324275856,"41":-8.391601153872665,"42":0.32369479076915125,"43":0.25644680794602837,"44":-0.631487841890526,"45":-9.138832534518725,"46":-15.887024882700496,"47":-9.88371123039874,"48":0.18919780225312183,"49":0.17706661572225701,"50":-0.45238622333977707,"51":-9.713549574288663,"52":-16.22783187042451,"53":-10.11634935683203,"54":-0.024883618210299198,"55":-0.172302690300222,"56":-0.16097598557786885,"57":-9.990591843472435,"58":-17.248114124689153,"59":-9.555055599912034,"60":-0.4201544874984488,"61":-0.14673784578708157,"62":0.2426379004576114}},{"sx":1,"sy":1,"depth":63,"w":{"0":-0.7363500325781329,"1":-0.09773854543557474,"2":-0.27068239657974624,"3":-0.817229497732625,"4":-0.3445682109497178,"5":-0.2359858789511689,"6":-0.14824740526386454,"7":-0.02675912361379306,"8":-0.029432079501863186,"9":-0.8293531515523072,"10":-0.2543019254332102,"11":-0.30038917674901444,"12":0.30894725534735235,"13":-0.12501958849145434,"14":-0.17110162021029962,"15":-0.8502555815654019,"16":-0.050107035705232145,"17":-0.03221494544201754,"18":0.028713438132411007,"19":0.17121325578488483,"20":0.003998212239703733,"21":-0.7817459898934336,"22":0.012783686563518132,"23":-0.24260917075953184,"24":-0.07390614514970144,"25":-0.0948544857731618,"26":0.16123498538195905,"27":-0.8804109208528982,"28":-0.0675330046026813,"29":-0.05784197443946711,"30":0.041170517652336744,"31":0.08757538014365923,"32":-0.20209169119426673,"33":-0.9488246542304606,"34":-0.1458405255178174,"35":-0.2532569753192721,"36":0.09157012710133262,"37":-0.0874013016812496,"38":-0.10614075871123392,"39":-0.9138771040097591,"40":-0.029040812241901092,"41":-0.01788628587333672,"42":-0.10606176191079882,"43":0.24046386600598052,"44":-0.04783739033961132,"45":-0.8574446898802278,"46":-0.10125081047882895,"47":-0.2991625788043416,"48":-0.020373184456683076,"49":-0.15630475332986674,"50":-0.17947385125019455,"51":-1.1643503923133813,"52":-0.16648380595883652,"53":-0.03687220384359139,"54":-0.05379114161246511,"55":0.07007253012250744,"56":0.2564579477202554,"57":-0.844350691060358,"58":-0.13088481568967714,"59":-0.06548000048435719,"60":-0.04857334495283603,"61":0.05090805951386733,"62":0.02685627213480249}},{"sx":1,"sy":1,"depth":63,"w":{"0":-3.2222744187236377e+99,"1":-1.155112404578816e+99,"2":-8.510492377559778e+98,"3":-3.1684391203286233e+99,"4":-1.173189861083632e+99,"5":-8.500902364260095e+98,"6":-4.841175103555008e+96,"7":-8.045590929658855e+96,"8":-7.470190131688498e+96,"9":-3.1130799294402194e+99,"10":-1.1891737399873194e+99,"11":-8.513560068476321e+98,"12":-8.376352899941847e+96,"13":-5.610570505985857e+96,"14":-6.370032758974746e+96,"15":-3.121491343247494e+99,"16":-1.1897857386133514e+99,"17":-8.531639289584991e+98,"18":-4.319495034544331e+96,"19":-7.476353931920178e+96,"20":-8.561107198437819e+96,"21":-3.126262282093067e+99,"22":-1.1903977372393634e+99,"23":-8.49201123281668e+98,"24":-6.825031037235241e+96,"25":-7.954804266890071e+96,"26":-5.577120860776656e+96,"27":-3.1341677667967094e+99,"28":-1.189900188159734e+99,"29":-8.552098249993712e+98,"30":-5.476950550482961e+96,"31":-5.637392291896513e+96,"32":-9.242613322523034e+96,"33":-3.1384327765383467e+99,"34":-1.189642352521789e+99,"35":-8.602949391816043e+98,"36":-4.582339494150203e+96,"37":-6.361774080708683e+96,"38":-9.412842590043297e+96,"39":-3.1304519185878836e+99,"40":-1.192626498087239e+99,"41":-8.640513079869042e+98,"42":-5.437091853357766e+96,"43":-6.333021514187295e+96,"44":-8.586842797357505e+96,"45":-3.134559347887979e+99,"46":-1.1929946381095777e+99,"47":-8.666637169037869e+98,"48":-6.943911227280225e+96,"49":-5.922799793737253e+96,"50":-7.490245143884636e+96,"51":-3.1419779006535333e+99,"52":-1.1933627781318925e+99,"53":-8.609549452707188e+98,"54":-8.202703208798506e+96,"55":-7.789757967973349e+96,"56":-4.364494988130778e+96,"57":-3.145104806979033e+99,"58":-1.193730918154215e+99,"59":-8.559450551618983e+98,"60":-5.890259970940053e+96,"61":-8.736315129626533e+96,"62":-5.730381064335284e+96}},{"sx":1,"sy":1,"depth":63,"w":{"0":-1.6186140844592576,"1":-0.35297151240715097,"2":-0.4260473619729191,"3":-1.5881530518788307,"4":-0.38564491937556417,"5":-0.3287083493009566,"6":-0.05752310054712135,"7":0.052557177397732885,"8":0.025816994942129263,"9":-1.653484701511734,"10":-0.23509591302177726,"11":-0.1916541237896694,"12":0.004545398175739773,"13":0.04926489419305142,"14":0.17723251427324732,"15":-1.3530272657058529,"16":-0.32779438045766796,"17":-0.3867320801827134,"18":0.15157601440053825,"19":-0.03880995493279371,"20":-0.1392734719096703,"21":-1.4623289775545636,"22":-0.276239992936215,"23":-0.3462481982995987,"24":-0.1217708662773238,"25":-0.03756229334123451,"26":-0.09102199405139426,"27":-1.597128459964318,"28":-0.3678659445605009,"29":-0.194097294805147,"30":0.08236799885536034,"31":0.003401424564807472,"32":-0.14743312967107175,"33":-1.650392763495725,"34":-0.28655805112855076,"35":-0.5533966663243167,"36":0.04086101633404955,"37":0.22257497456993053,"38":0.18510550242153453,"39":-1.534778404423363,"40":-0.6521077148224423,"41":-0.27949218219245364,"42":-0.08125513970645189,"43":-0.0011632940362669094,"44":0.11044423411940181,"45":-1.4504362661139851,"46":-0.42204994466411233,"47":-0.16760087738474846,"48":0.1464604570612287,"49":-0.14146755653856039,"50":-0.18059420459605136,"51":-1.6433690966375363,"52":-0.5364325912256128,"53":-0.2934835597357841,"54":-0.013098412239312233,"55":0.03343373379448001,"56":-0.09320933668532005,"57":-1.545541059754432,"58":-0.36160941745100383,"59":-0.4090571036758263,"60":-0.08979923104637391,"61":-0.2098069852031952,"62":0.31254863521318005}},{"sx":1,"sy":1,"depth":63,"w":{"0":-0.34158133899413406,"1":-0.2400327962460123,"2":-0.11779734781972377,"3":-0.4042937096392235,"4":0.011391814605031091,"5":-0.15839145384001166,"6":-0.11046758867646259,"7":0.05772911229524583,"8":-0.009066361899453219,"9":-0.2909337632913459,"10":-0.15100250511268776,"11":0.011294889890484916,"12":-0.11037319170474678,"13":-0.055127024977113345,"14":0.22281776099715142,"15":-0.26958216118336037,"16":-0.04676621021262465,"17":-0.34003185752008735,"18":-0.1660681164070928,"19":-0.0953905831297602,"20":0.053515221773696234,"21":-0.3046743263084345,"22":-0.15709989493759297,"23":-0.02562546238194709,"24":0.034905834532244766,"25":-0.057922811449431406,"26":-0.17852979134971342,"27":-0.656230074374944,"28":-0.04220591390340121,"29":-0.234179068771266,"30":-0.07106873891184,"31":0.11379772889214125,"32":0.09001309384493805,"33":-0.4131805853298063,"34":-0.05548277040147907,"35":-0.11136388127852913,"36":-0.07984245144111508,"37":0.03232417819338527,"38":0.013352473363701349,"39":-0.16302319822649244,"40":-0.23073223450127484,"41":0.04407228983852406,"42":0.09806403548876934,"43":0.23174683212951575,"44":-0.002424242967783596,"45":-0.1760319739406458,"46":-0.0015413078304331545,"47":-0.35394310521401384,"48":-0.012460642923510987,"49":-0.1522230177088764,"50":0.04767149132674944,"51":-0.4392337375243798,"52":-0.2598260704144521,"53":0.1689438063773344,"54":-0.1513846008081521,"55":-0.175431403338987,"56":-0.22895495370698146,"57":-0.4969563384110714,"58":-0.13932149004639716,"59":-0.0840808973351588,"60":-0.048605439289468075,"61":0.16385244794760367,"62":0.05821518894501922}}],"biases":{"sx":1,"sy":1,"depth":50,"w":{"0":-4748.857973071711,"1":-2974.4370686877455,"2":-2.464418005471751e+25,"3":0.1,"4":-4697749629142330000,"5":0.09495588574282748,"6":0.09812069612632067,"7":0.1,"8":-5153.296188489862,"9":0.09919991090975863,"10":-2.2874394920117e+95,"11":0.09602461430062934,"12":0.09906447777287514,"13":0.09952664214616419,"14":null,"15":-1.2631659953746282e+26,"16":null,"17":null,"18":null,"19":0.09994802984335252,"20":-1.7226228070564346e+25,"21":-5.512089020387335e+24,"22":0.09978471628918671,"23":null,"24":null,"25":-15352055415885906000,"26":-485105970366996150000,"27":0.0962337883751319,"28":0.09605137424918443,"29":-11.405990002899772,"30":null,"31":0.09924096149178377,"32":-6.018129854114263e+96,"33":-14930991381551645000,"34":-2176.8238701772543,"35":null,"36":0.1,"37":0.1,"38":-22.56260651925695,"39":-2678.3931613155682,"40":0.09953496214797632,"41":0.1,"42":-2268313055300339000,"43":0.09954627272181137,"44":0.09735830183687365,"45":0.047197323538052664,"46":0.09901792338638965,"47":-7.024187938152034e+96,"48":0.09726913668119527,"49":0.09894024214101992}}},{"out_depth":50,"out_sx":1,"out_sy":1,"layer_type":"relu"},{"out_depth":50,"out_sx":1,"out_sy":1,"layer_type":"fc","num_inputs":50,"l1_decay_mul":0,"l2_decay_mul":1,"filters":[{"sx":1,"sy":1,"depth":50,"w":{"0":null,"1":null,"2":null,"3":null,"4":null,"5":null,"6":null,"7":null,"8":null,"9":null,"10":null,"11":null,"12":null,"13":null,"14":null,"15":null,"16":null,"17":null,"18":null,"19":null,"20":null,"21":null,"22":null,"23":null,"24":null,"25":null,"26":null,"27":null,"28":null,"29":null,"30":null,"31":null,"32":null,"33":null,"34":null,"35":null,"36":null,"37":null,"38":null,"39":null,"40":null,"41":null,"42":null,"43":null,"44":null,"45":null,"46":null,"47":null,"48":null,"49":null}},{"sx":1,"sy":1,"depth":50,"w":{"0":null,"1":null,"2":null,"3":null,"4":null,"5":null,"6":null,"7":null,"8":null,"9":null,"10":null,"11":null,"12":null,"13":null,"14":null,"15":null,"16":null,"17":null,"18":null,"19":null,"20":null,"21":null,"22":null,"23":null,"24":null,"25":null,"26":null,"27":null,"28":null,"29":null,"30":null,"31":null,"32":null,"33":null,"34":null,"35":null,"36":null,"37":null,"38":null,"39":null,"40":null,"41":null,"42":null,"43":null,"44":null,"45":null,"46":null,"47":null,"48":null,"49":null}},{"sx":1,"sy":1,"depth":50,"w":{"0":null,"1":null,"2":null,"3":null,"4":null,"5":null,"6":null,"7":null,"8":null,"9":null,"10":null,"11":null,"12":null,"13":null,"14":null,"15":null,"16":null,"17":null,"18":null,"19":null,"20":null,"21":null,"22":null,"23":null,"24":null,"25":null,"26":null,"27":null,"28":null,"29":null,"30":null,"31":null,"32":null,"33":null,"34":null,"35":null,"36":null,"37":null,"38":null,"39":null,"40":null,"41":null,"42":null,"43":null,"44":null,"45":null,"46":null,"47":null,"48":null,"49":null}},{"sx":1,"sy":1,"depth":50,"w":{"0":null,"1":null,"2":null,"3":null,"4":null,"5":null,"6":null,"7":null,"8":null,"9":null,"10":null,"11":null,"12":null,"13":null,"14":null,"15":null,"16":null,"17":null,"18":null,"19":null,"20":null,"21":null,"22":null,"23":null,"24":null,"25":null,"26":null,"27":null,"28":null,"29":null,"30":null,"31":null,"32":null,"33":null,"34":null,"35":null,"36":null,"37":null,"38":null,"39":null,"40":null,"41":null,"42":null,"43":null,"44":null,"45":null,"46":null,"47":null,"48":null,"49":null}},{"sx":1,"sy":1,"depth":50,"w":{"0":null,"1":null,"2":null,"3":null,"4":null,"5":null,"6":null,"7":null,"8":null,"9":null,"10":null,"11":null,"12":null,"13":null,"14":null,"15":null,"16":null,"17":null,"18":null,"19":null,"20":null,"21":null,"22":null,"23":null,"24":null,"25":null,"26":null,"27":null,"28":null,"29":null,"30":null,"31":null,"32":null,"33":null,"34":null,"35":null,"36":null,"37":null,"38":null,"39":null,"40":null,"41":null,"42":null,"43":null,"44":null,"45":null,"46":null,"47":null,"48":null,"49":null}},{"sx":1,"sy":1,"depth":50,"w":{"0":null,"1":null,"2":null,"3":null,"4":null,"5":null,"6":null,"7":null,"8":null,"9":null,"10":null,"11":null,"12":null,"13":null,"14":null,"15":null,"16":null,"17":null,"18":null,"19":null,"20":null,"21":null,"22":null,"23":null,"24":null,"25":null,"26":null,"27":null,"28":null,"29":null,"30":null,"31":null,"32":null,"33":null,"34":null,"35":null,"36":null,"37":null,"38":null,"39":null,"40":null,"41":null,"42":null,"43":null,"44":null,"45":null,"46":null,"47":null,"48":null,"49":null}},{"sx":1,"sy":1,"depth":50,"w":{"0":null,"1":null,"2":null,"3":null,"4":null,"5":null,"6":null,"7":null,"8":null,"9":null,"10":null,"11":null,"12":null,"13":null,"14":null,"15":null,"16":null,"17":null,"18":null,"19":null,"20":null,"21":null,"22":null,"23":null,"24":null,"25":null,"26":null,"27":null,"28":null,"29":null,"30":null,"31":null,"32":null,"33":null,"34":null,"35":null,"36":null,"37":null,"38":null,"39":null,"40":null,"41":null,"42":null,"43":null,"44":null,"45":null,"46":null,"47":null,"48":null,"49":null}},{"sx":1,"sy":1,"depth":50,"w":{"0":null,"1":null,"2":null,"3":null,"4":null,"5":null,"6":null,"7":null,"8":null,"9":null,"10":null,"11":null,"12":null,"13":null,"14":null,"15":null,"16":null,"17":null,"18":null,"19":null,"20":null,"21":null,"22":null,"23":null,"24":null,"25":null,"26":null,"27":null,"28":null,"29":null,"30":null,"31":null,"32":null,"33":null,"34":null,"35":null,"36":null,"37":null,"38":null,"39":null,"40":null,"41":null,"42":null,"43":null,"44":null,"45":null,"46":null,"47":null,"48":null,"49":null}},{"sx":1,"sy":1,"depth":50,"w":{"0":null,"1":null,"2":null,"3":null,"4":null,"5":null,"6":null,"7":null,"8":null,"9":null,"10":null,"11":null,"12":null,"13":null,"14":null,"15":null,"16":null,"17":null,"18":null,"19":null,"20":null,"21":null,"22":null,"23":null,"24":null,"25":null,"26":null,"27":null,"28":null,"29":null,"30":null,"31":null,"32":null,"33":null,"34":null,"35":null,"36":null,"37":null,"38":null,"39":null,"40":null,"41":null,"42":null,"43":null,"44":null,"45":null,"46":null,"47":null,"48":null,"49":null}},{"sx":1,"sy":1,"depth":50,"w":{"0":null,"1":null,"2":null,"3":null,"4":null,"5":null,"6":null,"7":null,"8":null,"9":null,"10":null,"11":null,"12":null,"13":null,"14":null,"15":null,"16":null,"17":null,"18":null,"19":null,"20":null,"21":null,"22":null,"23":null,"24":null,"25":null,"26":null,"27":null,"28":null,"29":null,"30":null,"31":null,"32":null,"33":null,"34":null,"35":null,"36":null,"37":null,"38":null,"39":null,"40":null,"41":null,"42":null,"43":null,"44":null,"45":null,"46":null,"47":null,"48":null,"49":null}},{"sx":1,"sy":1,"depth":50,"w":{"0":null,"1":null,"2":null,"3":null,"4":null,"5":null,"6":null,"7":null,"8":null,"9":null,"10":null,"11":null,"12":null,"13":null,"14":null,"15":null,"16":null,"17":null,"18":null,"19":null,"20":null,"21":null,"22":null,"23":null,"24":null,"25":null,"26":null,"27":null,"28":null,"29":null,"30":null,"31":null,"32":null,"33":null,"34":null,"35":null,"36":null,"37":null,"38":null,"39":null,"40":null,"41":null,"42":null,"43":null,"44":null,"45":null,"46":null,"47":null,"48":null,"49":null}},{"sx":1,"sy":1,"depth":50,"w":{"0":null,"1":null,"2":null,"3":null,"4":null,"5":null,"6":null,"7":null,"8":null,"9":null,"10":null,"11":null,"12":null,"13":null,"14":null,"15":null,"16":null,"17":null,"18":null,"19":null,"20":null,"21":null,"22":null,"23":null,"24":null,"25":null,"26":null,"27":null,"28":null,"29":null,"30":null,"31":null,"32":null,"33":null,"34":null,"35":null,"36":null,"37":null,"38":null,"39":null,"40":null,"41":null,"42":null,"43":null,"44":null,"45":null,"46":null,"47":null,"48":null,"49":null}},{"sx":1,"sy":1,"depth":50,"w":{"0":null,"1":null,"2":null,"3":null,"4":null,"5":null,"6":null,"7":null,"8":null,"9":null,"10":null,"11":null,"12":null,"13":null,"14":null,"15":null,"16":null,"17":null,"18":null,"19":null,"20":null,"21":null,"22":null,"23":null,"24":null,"25":null,"26":null,"27":null,"28":null,"29":null,"30":null,"31":null,"32":null,"33":null,"34":null,"35":null,"36":null,"37":null,"38":null,"39":null,"40":null,"41":null,"42":null,"43":null,"44":null,"45":null,"46":null,"47":null,"48":null,"49":null}},{"sx":1,"sy":1,"depth":50,"w":{"0":null,"1":null,"2":null,"3":null,"4":null,"5":null,"6":null,"7":null,"8":null,"9":null,"10":null,"11":null,"12":null,"13":null,"14":null,"15":null,"16":null,"17":null,"18":null,"19":null,"20":null,"21":null,"22":null,"23":null,"24":null,"25":null,"26":null,"27":null,"28":null,"29":null,"30":null,"31":null,"32":null,"33":null,"34":null,"35":null,"36":null,"37":null,"38":null,"39":null,"40":null,"41":null,"42":null,"43":null,"44":null,"45":null,"46":null,"47":null,"48":null,"49":null}},{"sx":1,"sy":1,"depth":50,"w":{"0":null,"1":null,"2":null,"3":null,"4":null,"5":null,"6":null,"7":null,"8":null,"9":null,"10":null,"11":null,"12":null,"13":null,"14":null,"15":null,"16":null,"17":null,"18":null,"19":null,"20":null,"21":null,"22":null,"23":null,"24":null,"25":null,"26":null,"27":null,"28":null,"29":null,"30":null,"31":null,"32":null,"33":null,"34":null,"35":null,"36":null,"37":null,"38":null,"39":null,"40":null,"41":null,"42":null,"43":null,"44":null,"45":null,"46":null,"47":null,"48":null,"49":null}},{"sx":1,"sy":1,"depth":50,"w":{"0":null,"1":null,"2":null,"3":null,"4":null,"5":null,"6":null,"7":null,"8":null,"9":null,"10":null,"11":null,"12":null,"13":null,"14":null,"15":null,"16":null,"17":null,"18":null,"19":null,"20":null,"21":null,"22":null,"23":null,"24":null,"25":null,"26":null,"27":null,"28":null,"29":null,"30":null,"31":null,"32":null,"33":null,"34":null,"35":null,"36":null,"37":null,"38":null,"39":null,"40":null,"41":null,"42":null,"43":null,"44":null,"45":null,"46":null,"47":null,"48":null,"49":null}},{"sx":1,"sy":1,"depth":50,"w":{"0":null,"1":null,"2":null,"3":null,"4":null,"5":null,"6":null,"7":null,"8":null,"9":null,"10":null,"11":null,"12":null,"13":null,"14":null,"15":null,"16":null,"17":null,"18":null,"19":null,"20":null,"21":null,"22":null,"23":null,"24":null,"25":null,"26":null,"27":null,"28":null,"29":null,"30":null,"31":null,"32":null,"33":null,"34":null,"35":null,"36":null,"37":null,"38":null,"39":null,"40":null,"41":null,"42":null,"43":null,"44":null,"45":null,"46":null,"47":null,"48":null,"49":null}},{"sx":1,"sy":1,"depth":50,"w":{"0":null,"1":null,"2":null,"3":null,"4":null,"5":null,"6":null,"7":null,"8":null,"9":null,"10":null,"11":null,"12":null,"13":null,"14":null,"15":null,"16":null,"17":null,"18":null,"19":null,"20":null,"21":null,"22":null,"23":null,"24":null,"25":null,"26":null,"27":null,"28":null,"29":null,"30":null,"31":null,"32":null,"33":null,"34":null,"35":null,"36":null,"37":null,"38":null,"39":null,"40":null,"41":null,"42":null,"43":null,"44":null,"45":null,"46":null,"47":null,"48":null,"49":null}},{"sx":1,"sy":1,"depth":50,"w":{"0":null,"1":null,"2":null,"3":null,"4":null,"5":null,"6":null,"7":null,"8":null,"9":null,"10":null,"11":null,"12":null,"13":null,"14":null,"15":null,"16":null,"17":null,"18":null,"19":null,"20":null,"21":null,"22":null,"23":null,"24":null,"25":null,"26":null,"27":null,"28":null,"29":null,"30":null,"31":null,"32":null,"33":null,"34":null,"35":null,"36":null,"37":null,"38":null,"39":null,"40":null,"41":null,"42":null,"43":null,"44":null,"45":null,"46":null,"47":null,"48":null,"49":null}},{"sx":1,"sy":1,"depth":50,"w":{"0":null,"1":null,"2":null,"3":null,"4":null,"5":null,"6":null,"7":null,"8":null,"9":null,"10":null,"11":null,"12":null,"13":null,"14":null,"15":null,"16":null,"17":null,"18":null,"19":null,"20":null,"21":null,"22":null,"23":null,"24":null,"25":null,"26":null,"27":null,"28":null,"29":null,"30":null,"31":null,"32":null,"33":null,"34":null,"35":null,"36":null,"37":null,"38":null,"39":null,"40":null,"41":null,"42":null,"43":null,"44":null,"45":null,"46":null,"47":null,"48":null,"49":null}},{"sx":1,"sy":1,"depth":50,"w":{"0":null,"1":null,"2":null,"3":null,"4":null,"5":null,"6":null,"7":null,"8":null,"9":null,"10":null,"11":null,"12":null,"13":null,"14":null,"15":null,"16":null,"17":null,"18":null,"19":null,"20":null,"21":null,"22":null,"23":null,"24":null,"25":null,"26":null,"27":null,"28":null,"29":null,"30":null,"31":null,"32":null,"33":null,"34":null,"35":null,"36":null,"37":null,"38":null,"39":null,"40":null,"41":null,"42":null,"43":null,"44":null,"45":null,"46":null,"47":null,"48":null,"49":null}},{"sx":1,"sy":1,"depth":50,"w":{"0":null,"1":null,"2":null,"3":null,"4":null,"5":null,"6":null,"7":null,"8":null,"9":null,"10":null,"11":null,"12":null,"13":null,"14":null,"15":null,"16":null,"17":null,"18":null,"19":null,"20":null,"21":null,"22":null,"23":null,"24":null,"25":null,"26":null,"27":null,"28":null,"29":null,"30":null,"31":null,"32":null,"33":null,"34":null,"35":null,"36":null,"37":null,"38":null,"39":null,"40":null,"41":null,"42":null,"43":null,"44":null,"45":null,"46":null,"47":null,"48":null,"49":null}},{"sx":1,"sy":1,"depth":50,"w":{"0":null,"1":null,"2":null,"3":null,"4":null,"5":null,"6":null,"7":null,"8":null,"9":null,"10":null,"11":null,"12":null,"13":null,"14":null,"15":null,"16":null,"17":null,"18":null,"19":null,"20":null,"21":null,"22":null,"23":null,"24":null,"25":null,"26":null,"27":null,"28":null,"29":null,"30":null,"31":null,"32":null,"33":null,"34":null,"35":null,"36":null,"37":null,"38":null,"39":null,"40":null,"41":null,"42":null,"43":null,"44":null,"45":null,"46":null,"47":null,"48":null,"49":null}},{"sx":1,"sy":1,"depth":50,"w":{"0":null,"1":null,"2":null,"3":null,"4":null,"5":null,"6":null,"7":null,"8":null,"9":null,"10":null,"11":null,"12":null,"13":null,"14":null,"15":null,"16":null,"17":null,"18":null,"19":null,"20":null,"21":null,"22":null,"23":null,"24":null,"25":null,"26":null,"27":null,"28":null,"29":null,"30":null,"31":null,"32":null,"33":null,"34":null,"35":null,"36":null,"37":null,"38":null,"39":null,"40":null,"41":null,"42":null,"43":null,"44":null,"45":null,"46":null,"47":null,"48":null,"49":null}},{"sx":1,"sy":1,"depth":50,"w":{"0":null,"1":null,"2":null,"3":null,"4":null,"5":null,"6":null,"7":null,"8":null,"9":null,"10":null,"11":null,"12":null,"13":null,"14":null,"15":null,"16":null,"17":null,"18":null,"19":null,"20":null,"21":null,"22":null,"23":null,"24":null,"25":null,"26":null,"27":null,"28":null,"29":null,"30":null,"31":null,"32":null,"33":null,"34":null,"35":null,"36":null,"37":null,"38":null,"39":null,"40":null,"41":null,"42":null,"43":null,"44":null,"45":null,"46":null,"47":null,"48":null,"49":null}},{"sx":1,"sy":1,"depth":50,"w":{"0":null,"1":null,"2":null,"3":null,"4":null,"5":null,"6":null,"7":null,"8":null,"9":null,"10":null,"11":null,"12":null,"13":null,"14":null,"15":null,"16":null,"17":null,"18":null,"19":null,"20":null,"21":null,"22":null,"23":null,"24":null,"25":null,"26":null,"27":null,"28":null,"29":null,"30":null,"31":null,"32":null,"33":null,"34":null,"35":null,"36":null,"37":null,"38":null,"39":null,"40":null,"41":null,"42":null,"43":null,"44":null,"45":null,"46":null,"47":null,"48":null,"49":null}},{"sx":1,"sy":1,"depth":50,"w":{"0":null,"1":null,"2":null,"3":null,"4":null,"5":null,"6":null,"7":null,"8":null,"9":null,"10":null,"11":null,"12":null,"13":null,"14":null,"15":null,"16":null,"17":null,"18":null,"19":null,"20":null,"21":null,"22":null,"23":null,"24":null,"25":null,"26":null,"27":null,"28":null,"29":null,"30":null,"31":null,"32":null,"33":null,"34":null,"35":null,"36":null,"37":null,"38":null,"39":null,"40":null,"41":null,"42":null,"43":null,"44":null,"45":null,"46":null,"47":null,"48":null,"49":null}},{"sx":1,"sy":1,"depth":50,"w":{"0":null,"1":null,"2":null,"3":null,"4":null,"5":null,"6":null,"7":null,"8":null,"9":null,"10":null,"11":null,"12":null,"13":null,"14":null,"15":null,"16":null,"17":null,"18":null,"19":null,"20":null,"21":null,"22":null,"23":null,"24":null,"25":null,"26":null,"27":null,"28":null,"29":null,"30":null,"31":null,"32":null,"33":null,"34":null,"35":null,"36":null,"37":null,"38":null,"39":null,"40":null,"41":null,"42":null,"43":null,"44":null,"45":null,"46":null,"47":null,"48":null,"49":null}},{"sx":1,"sy":1,"depth":50,"w":{"0":null,"1":null,"2":null,"3":null,"4":null,"5":null,"6":null,"7":null,"8":null,"9":null,"10":null,"11":null,"12":null,"13":null,"14":null,"15":null,"16":null,"17":null,"18":null,"19":null,"20":null,"21":null,"22":null,"23":null,"24":null,"25":null,"26":null,"27":null,"28":null,"29":null,"30":null,"31":null,"32":null,"33":null,"34":null,"35":null,"36":null,"37":null,"38":null,"39":null,"40":null,"41":null,"42":null,"43":null,"44":null,"45":null,"46":null,"47":null,"48":null,"49":null}},{"sx":1,"sy":1,"depth":50,"w":{"0":null,"1":null,"2":null,"3":null,"4":null,"5":null,"6":null,"7":null,"8":null,"9":null,"10":null,"11":null,"12":null,"13":null,"14":null,"15":null,"16":null,"17":null,"18":null,"19":null,"20":null,"21":null,"22":null,"23":null,"24":null,"25":null,"26":null,"27":null,"28":null,"29":null,"30":null,"31":null,"32":null,"33":null,"34":null,"35":null,"36":null,"37":null,"38":null,"39":null,"40":null,"41":null,"42":null,"43":null,"44":null,"45":null,"46":null,"47":null,"48":null,"49":null}},{"sx":1,"sy":1,"depth":50,"w":{"0":null,"1":null,"2":null,"3":null,"4":null,"5":null,"6":null,"7":null,"8":null,"9":null,"10":null,"11":null,"12":null,"13":null,"14":null,"15":null,"16":null,"17":null,"18":null,"19":null,"20":null,"21":null,"22":null,"23":null,"24":null,"25":null,"26":null,"27":null,"28":null,"29":null,"30":null,"31":null,"32":null,"33":null,"34":null,"35":null,"36":null,"37":null,"38":null,"39":null,"40":null,"41":null,"42":null,"43":null,"44":null,"45":null,"46":null,"47":null,"48":null,"49":null}},{"sx":1,"sy":1,"depth":50,"w":{"0":null,"1":null,"2":null,"3":null,"4":null,"5":null,"6":null,"7":null,"8":null,"9":null,"10":null,"11":null,"12":null,"13":null,"14":null,"15":null,"16":null,"17":null,"18":null,"19":null,"20":null,"21":null,"22":null,"23":null,"24":null,"25":null,"26":null,"27":null,"28":null,"29":null,"30":null,"31":null,"32":null,"33":null,"34":null,"35":null,"36":null,"37":null,"38":null,"39":null,"40":null,"41":null,"42":null,"43":null,"44":null,"45":null,"46":null,"47":null,"48":null,"49":null}},{"sx":1,"sy":1,"depth":50,"w":{"0":null,"1":null,"2":null,"3":null,"4":null,"5":null,"6":null,"7":null,"8":null,"9":null,"10":null,"11":null,"12":null,"13":null,"14":null,"15":null,"16":null,"17":null,"18":null,"19":null,"20":null,"21":null,"22":null,"23":null,"24":null,"25":null,"26":null,"27":null,"28":null,"29":null,"30":null,"31":null,"32":null,"33":null,"34":null,"35":null,"36":null,"37":null,"38":null,"39":null,"40":null,"41":null,"42":null,"43":null,"44":null,"45":null,"46":null,"47":null,"48":null,"49":null}},{"sx":1,"sy":1,"depth":50,"w":{"0":null,"1":null,"2":null,"3":null,"4":null,"5":null,"6":null,"7":null,"8":null,"9":null,"10":null,"11":null,"12":null,"13":null,"14":null,"15":null,"16":null,"17":null,"18":null,"19":null,"20":null,"21":null,"22":null,"23":null,"24":null,"25":null,"26":null,"27":null,"28":null,"29":null,"30":null,"31":null,"32":null,"33":null,"34":null,"35":null,"36":null,"37":null,"38":null,"39":null,"40":null,"41":null,"42":null,"43":null,"44":null,"45":null,"46":null,"47":null,"48":null,"49":null}},{"sx":1,"sy":1,"depth":50,"w":{"0":null,"1":null,"2":null,"3":null,"4":null,"5":null,"6":null,"7":null,"8":null,"9":null,"10":null,"11":null,"12":null,"13":null,"14":null,"15":null,"16":null,"17":null,"18":null,"19":null,"20":null,"21":null,"22":null,"23":null,"24":null,"25":null,"26":null,"27":null,"28":null,"29":null,"30":null,"31":null,"32":null,"33":null,"34":null,"35":null,"36":null,"37":null,"38":null,"39":null,"40":null,"41":null,"42":null,"43":null,"44":null,"45":null,"46":null,"47":null,"48":null,"49":null}},{"sx":1,"sy":1,"depth":50,"w":{"0":null,"1":null,"2":null,"3":null,"4":null,"5":null,"6":null,"7":null,"8":null,"9":null,"10":null,"11":null,"12":null,"13":null,"14":null,"15":null,"16":null,"17":null,"18":null,"19":null,"20":null,"21":null,"22":null,"23":null,"24":null,"25":null,"26":null,"27":null,"28":null,"29":null,"30":null,"31":null,"32":null,"33":null,"34":null,"35":null,"36":null,"37":null,"38":null,"39":null,"40":null,"41":null,"42":null,"43":null,"44":null,"45":null,"46":null,"47":null,"48":null,"49":null}},{"sx":1,"sy":1,"depth":50,"w":{"0":null,"1":null,"2":null,"3":null,"4":null,"5":null,"6":null,"7":null,"8":null,"9":null,"10":null,"11":null,"12":null,"13":null,"14":null,"15":null,"16":null,"17":null,"18":null,"19":null,"20":null,"21":null,"22":null,"23":null,"24":null,"25":null,"26":null,"27":null,"28":null,"29":null,"30":null,"31":null,"32":null,"33":null,"34":null,"35":null,"36":null,"37":null,"38":null,"39":null,"40":null,"41":null,"42":null,"43":null,"44":null,"45":null,"46":null,"47":null,"48":null,"49":null}},{"sx":1,"sy":1,"depth":50,"w":{"0":null,"1":null,"2":null,"3":null,"4":null,"5":null,"6":null,"7":null,"8":null,"9":null,"10":null,"11":null,"12":null,"13":null,"14":null,"15":null,"16":null,"17":null,"18":null,"19":null,"20":null,"21":null,"22":null,"23":null,"24":null,"25":null,"26":null,"27":null,"28":null,"29":null,"30":null,"31":null,"32":null,"33":null,"34":null,"35":null,"36":null,"37":null,"38":null,"39":null,"40":null,"41":null,"42":null,"43":null,"44":null,"45":null,"46":null,"47":null,"48":null,"49":null}},{"sx":1,"sy":1,"depth":50,"w":{"0":null,"1":null,"2":null,"3":null,"4":null,"5":null,"6":null,"7":null,"8":null,"9":null,"10":null,"11":null,"12":null,"13":null,"14":null,"15":null,"16":null,"17":null,"18":null,"19":null,"20":null,"21":null,"22":null,"23":null,"24":null,"25":null,"26":null,"27":null,"28":null,"29":null,"30":null,"31":null,"32":null,"33":null,"34":null,"35":null,"36":null,"37":null,"38":null,"39":null,"40":null,"41":null,"42":null,"43":null,"44":null,"45":null,"46":null,"47":null,"48":null,"49":null}},{"sx":1,"sy":1,"depth":50,"w":{"0":null,"1":null,"2":null,"3":null,"4":null,"5":null,"6":null,"7":null,"8":null,"9":null,"10":null,"11":null,"12":null,"13":null,"14":null,"15":null,"16":null,"17":null,"18":null,"19":null,"20":null,"21":null,"22":null,"23":null,"24":null,"25":null,"26":null,"27":null,"28":null,"29":null,"30":null,"31":null,"32":null,"33":null,"34":null,"35":null,"36":null,"37":null,"38":null,"39":null,"40":null,"41":null,"42":null,"43":null,"44":null,"45":null,"46":null,"47":null,"48":null,"49":null}},{"sx":1,"sy":1,"depth":50,"w":{"0":null,"1":null,"2":null,"3":null,"4":null,"5":null,"6":null,"7":null,"8":null,"9":null,"10":null,"11":null,"12":null,"13":null,"14":null,"15":null,"16":null,"17":null,"18":null,"19":null,"20":null,"21":null,"22":null,"23":null,"24":null,"25":null,"26":null,"27":null,"28":null,"29":null,"30":null,"31":null,"32":null,"33":null,"34":null,"35":null,"36":null,"37":null,"38":null,"39":null,"40":null,"41":null,"42":null,"43":null,"44":null,"45":null,"46":null,"47":null,"48":null,"49":null}},{"sx":1,"sy":1,"depth":50,"w":{"0":null,"1":null,"2":null,"3":null,"4":null,"5":null,"6":null,"7":null,"8":null,"9":null,"10":null,"11":null,"12":null,"13":null,"14":null,"15":null,"16":null,"17":null,"18":null,"19":null,"20":null,"21":null,"22":null,"23":null,"24":null,"25":null,"26":null,"27":null,"28":null,"29":null,"30":null,"31":null,"32":null,"33":null,"34":null,"35":null,"36":null,"37":null,"38":null,"39":null,"40":null,"41":null,"42":null,"43":null,"44":null,"45":null,"46":null,"47":null,"48":null,"49":null}},{"sx":1,"sy":1,"depth":50,"w":{"0":null,"1":null,"2":null,"3":null,"4":null,"5":null,"6":null,"7":null,"8":null,"9":null,"10":null,"11":null,"12":null,"13":null,"14":null,"15":null,"16":null,"17":null,"18":null,"19":null,"20":null,"21":null,"22":null,"23":null,"24":null,"25":null,"26":null,"27":null,"28":null,"29":null,"30":null,"31":null,"32":null,"33":null,"34":null,"35":null,"36":null,"37":null,"38":null,"39":null,"40":null,"41":null,"42":null,"43":null,"44":null,"45":null,"46":null,"47":null,"48":null,"49":null}},{"sx":1,"sy":1,"depth":50,"w":{"0":null,"1":null,"2":null,"3":null,"4":null,"5":null,"6":null,"7":null,"8":null,"9":null,"10":null,"11":null,"12":null,"13":null,"14":null,"15":null,"16":null,"17":null,"18":null,"19":null,"20":null,"21":null,"22":null,"23":null,"24":null,"25":null,"26":null,"27":null,"28":null,"29":null,"30":null,"31":null,"32":null,"33":null,"34":null,"35":null,"36":null,"37":null,"38":null,"39":null,"40":null,"41":null,"42":null,"43":null,"44":null,"45":null,"46":null,"47":null,"48":null,"49":null}},{"sx":1,"sy":1,"depth":50,"w":{"0":null,"1":null,"2":null,"3":null,"4":null,"5":null,"6":null,"7":null,"8":null,"9":null,"10":null,"11":null,"12":null,"13":null,"14":null,"15":null,"16":null,"17":null,"18":null,"19":null,"20":null,"21":null,"22":null,"23":null,"24":null,"25":null,"26":null,"27":null,"28":null,"29":null,"30":null,"31":null,"32":null,"33":null,"34":null,"35":null,"36":null,"37":null,"38":null,"39":null,"40":null,"41":null,"42":null,"43":null,"44":null,"45":null,"46":null,"47":null,"48":null,"49":null}},{"sx":1,"sy":1,"depth":50,"w":{"0":null,"1":null,"2":null,"3":null,"4":null,"5":null,"6":null,"7":null,"8":null,"9":null,"10":null,"11":null,